\data\
ngram 1=565
ngram 2=1693
ngram 3=1990

\1-grams:
-1.1994 </s> -0.3010
-1.1994 <s> -0.2022
-2.3576 a -0.2941
-3.1793 able -0.2980
-3.1793 abort -0.2603
-3.1010 about -0.2952
-3.2245 ac -0.3010
-3.2245 access -0.2980
-3.2245 accuracy -0.2603
-3.1010 activate -0.3003
-3.2245 active -0.3007
-3.2245 adaptation -0.2603
-3.2245 adaption -0.2603
-3.2245 adobe -0.3010
-3.1793 advanced -0.3007
-3.2245 after -0.3006
-3.0665 again -0.2603
-3.1793 age -0.2603
-3.0665 alarm -0.2578
-3.2245 alexander -0.2603
-2.8205 all -0.2941
-3.1793 alpha -0.2603
-3.1793 alright -0.2603
-2.9510 am -0.2576
-3.2245 amt -0.2603
-3.0665 an -0.3008
-2.8598 and -0.2951
-3.1384 angeles -0.2574
-3.1010 annoying -0.2603
-3.1793 any -0.2998
-3.2245 anymore -0.2603
-3.1793 anything -0.2581
-3.1793 app -0.2603
-3.1384 apps -0.2992
-3.1384 arduino -0.2603
-2.5206 are -0.2870
-3.2245 area -0.2603
-3.2245 article -0.2603
-3.2245 artists -0.2603
-2.9771 ask -0.2942
-2.6777 at -0.2951
-3.2245 attend -0.2951
-3.1793 audio -0.3007
-3.1793 australian -0.2603
-3.2245 azize -0.2603
-3.1384 back -0.2603
-3.2245 band -0.2603
-3.1793 basic -0.3007
-3.1793 batch -0.3007
-3.2245 bb -0.3010
-3.0049 be -0.3004
-3.2245 beatsteaks -0.2603
-3.2245 benedikt -0.2603
-3.1793 berlin -0.2570
-3.1384 best -0.3009
-3.2245 beyonce -0.2603
-3.1384 bing -0.2562
-3.1793 birthday -0.2578
-3.1793 blog -0.2983
-3.1793 bob -0.3009
-3.1793 boring -0.2603
-3.1793 boss -0.2603
-3.2245 bosse -0.2603
-3.1010 bring -0.2973
-3.1793 british -0.2603
-3.0665 browser -0.2574
-3.2245 bruno -0.3010
-3.0346 bundesliga -0.2592
-3.1010 bus -0.2603
-2.8808 bye -0.2598
-3.1793 calculator -0.2603
-3.2245 call -0.2973
-2.3145 can -0.2894
-3.1793 canadian -0.2603
-3.1793 cancel -0.2603
-3.2245 carla -0.2603
-3.2245 catch -0.2951
-3.1384 cats -0.2603
-2.8808 change -0.3002
-3.0346 check -0.2933
-3.2245 chef -0.2603
-3.1793 chicago -0.2603
-3.2245 christian -0.2603
-3.2245 christoph -0.2603
-3.2245 chrome -0.2603
-3.0346 close -0.2943
-3.1384 closest -0.3009
-3.2245 cologne -0.2603
-3.2245 colon -0.2603
-3.2245 come -0.3009
-3.2245 coming -0.2603
-3.2245 comma -0.2603
-3.2245 command -0.2603
-3.1384 commands -0.2907
-3.2245 completely -0.3010
-3.1793 computer -0.2578
-3.1793 connected -0.2980
-3.1384 connection -0.2598
-3.1010 cool -0.2601
-3.2245 correct -0.2603
-3.1793 could -0.2934
-3.2245 count -0.2603
-3.2245 create -0.2986
-3.1793 created -0.2954
-3.1793 creo -0.2603
-3.2245 cro -0.2603
-3.1793 cu -0.2603
-3.1793 daft -0.3009
-3.1010 data -0.2603
-3.1010 date -0.2594
-3.0049 day -0.2552
-3.1384 days -0.2603
-3.2245 dc -0.2603
-3.1793 deactivate -0.3003
-3.1793 default -0.3007
-3.2245 definitely -0.3009
-3.2245 deichkind -0.2603
-3.2245 dennis -0.2603
-3.2245 dialogues -0.2992
-3.1793 did -0.2990
-3.1384 directions -0.2975
-3.1793 disable -0.3003
-3.2245 distance -0.2603
-2.5206 do -0.2487
-3.0346 does -0.2978
-3.1384 don't -0.2952
-3.1793 done -0.2603
-3.2245 drugstore -0.2603
-3.2245 duesseldorf -0.2603
-3.2245 duisburg -0.2603
-3.2245 dylan -0.2603
-3.0049 eight -0.2578
-3.1793 eighteen -0.2588
-3.2245 electro -0.3009
-3.2245 elements -0.2603
-3.1010 eleven -0.2577
-3.2245 elke -0.2603
-3.1010 email -0.2603
-3.2245 eminem -0.2603
-3.1793 enable -0.3003
-3.1793 end -0.2603
-2.9771 energy -0.2599
-2.9771 engine -0.2603
-2.9771 english -0.2574
-3.1793 enter -0.3007
-3.1793 essen -0.2603
-3.1793 ever -0.2603
-3.2245 everything -0.3009
-3.1793 excel -0.2597
-3.1010 exit -0.2603
-3.2245 exiting -0.2603
-3.2245 explorer -0.2603
-3.0049 facebook -0.2573
-3.2245 famous -0.3010
-3.1793 fast -0.2603
-3.1793 favorite -0.3003
-3.1384 feeling -0.2598
-3.2245 fetch -0.2951
-3.1010 fifteen -0.2588
-2.9510 find -0.2869
-3.1793 firefox -0.2601
-3.0665 first -0.2595
-2.8808 five -0.2581
-3.2245 flight -0.2603
-3.1793 florian -0.2603
-3.2245 folder -0.2603
-3.2245 food -0.3010
-2.4932 for -0.2426
-3.0346 forty -0.2583
-3.0665 four -0.2581
-3.1793 fourteen -0.2588
-3.1010 francisco -0.2570
-3.2245 frank -0.2603
-3.2245 frankfurt -0.2603
-2.9030 from -0.2575
-3.1793 full -0.3006
-3.1010 funny -0.2602
-3.2245 future -0.3010
-3.2245 game -0.3002
-3.1793 geolocation -0.2603
-2.8397 german -0.2571
-3.1384 get -0.3009
-3.1010 give -0.2973
-2.9771 go -0.2565
-3.1384 going -0.2587
-3.1793 gone -0.2585
-2.8808 good -0.2572
-3.1793 good-bye -0.2603
-3.1010 goodbye -0.2603
-2.9263 google -0.2547
-3.1384 grammar -0.3001
-3.1793 guitar -0.3009
-3.1793 hamburg -0.2583
-3.2245 happening -0.3007
-3.2245 happens -0.3009
-3.0049 have -0.2872
-2.7512 headline -0.2585
-2.9510 hear -0.2540
-3.2245 hell -0.2988
-3.1384 hello -0.2583
-3.0346 help -0.2498
-3.1384 hendrix -0.2603
-2.9510 here -0.2570
-2.8021 hey -0.2582
-3.1384 hi -0.2583
-3.1793 hide -0.3009
-3.2245 ho -0.2603
-3.2245 hold -0.2994
-2.9771 home -0.2572
-3.2245 hospital -0.3010
-3.1384 hour -0.2603
-3.0665 hours -0.2603
-2.6644 how -0.2538
-3.1010 how's -0.2943
-2.4201 i -0.2536
-3.1384 i'd -0.3003
-2.8397 i'm -0.3003
-3.2245 i've -0.3009
-3.2245 id -0.3005
-3.1384 if -0.2954
-3.2245 igor -0.2603
-2.4511 ila -0.2425
-3.2245 imagej -0.2603
-3.1793 important -0.3008
-3.1793 impressed -0.2603
-2.3707 in -0.2888
-3.1793 indian -0.2603
-3.2245 info -0.2603
-3.1793 inside -0.2983
-3.2245 intelligence -0.3009
-3.2245 interests -0.2603
-3.0665 internet -0.2601
-2.3843 is -0.2421
-3.2245 isabella -0.2603
-3.1793 isn't -0.3004
-2.8021 it -0.2557
-3.1010 it's -0.2984
-3.2245 itunes -0.2603
-3.2245 jackson -0.2603
-3.2245 jay -0.3010
-3.2245 jens -0.2603
-3.2245 jessica -0.2603
-3.2245 jessy -0.2603
-3.2245 jim -0.3009
-3.1793 jimi -0.3009
-3.1793 joe -0.2602
-3.2245 johannes -0.2603
-3.2245 justin -0.3010
-3.2245 katy -0.3010
-3.2245 kids -0.2987
-3.2245 kind -0.2998
-3.2245 king -0.2603
-3.2245 kings -0.2998
-3.2245 klaus -0.2603
-2.7844 know -0.2936
-3.1793 kyuss -0.2603
-2.8808 language -0.2980
-3.1010 last -0.2602
-3.1793 later -0.2603
-3.1384 latest -0.2995
-3.1010 learning -0.2603
-3.1384 leave -0.2603
-3.2245 leaving -0.2603
-3.2245 leon -0.2603
-3.0346 let's -0.2993
-3.1793 life -0.2603
-3.1793 lights -0.2983
-2.8598 like -0.2944
-3.2245 linux -0.2603
-3.1010 list -0.2590
-3.1010 listen -0.2570
-3.1384 listening -0.2570
-3.1010 live -0.2603
-2.8397 load -0.2903
-3.2245 locate -0.2973
-2.9030 location -0.2590
-3.1384 london -0.2603
-3.1793 look -0.2994
-2.9771 looking -0.2994
-3.1384 los -0.3009
-3.1793 loud -0.2603
-3.2245 mac -0.2603
-3.1793 made -0.2954
-3.2245 madonna -0.2603
-3.1793 make -0.2986
-3.2245 manuel -0.2603
-3.1793 maps -0.2603
-3.2245 market -0.3002
-3.2245 marley -0.2603
-3.2245 mars -0.2603
-3.2245 marvin -0.2603
-3.2245 match -0.2980
-3.2245 mathias -0.2603
-3.1793 matlab -0.2585
-3.1793 may -0.3005
-2.1883 me -0.2285
-3.0665 mean -0.2603
-3.1793 meaning -0.2998
-3.1793 meeting -0.2598
-3.2245 mehdi -0.2603
-3.1010 memory -0.2603
-3.2245 metal -0.3009
-3.1793 metallica -0.2603
-3.1793 michael -0.2603
-3.1010 microsoft -0.3007
-3.1793 mind -0.2603
-3.1793 minute -0.2603
-2.5600 minutes -0.2540
-3.1793 miss -0.2601
-3.1384 missed -0.2600
-3.1384 mix -0.2603
-2.7056 mode -0.2578
-3.1010 morning -0.2583
-3.1384 most -0.3009
-3.2245 mozilla -0.3009
-3.1793 munich -0.2603
-2.6389 music -0.2553
-2.4511 my -0.2932
-2.7512 name -0.2575
-3.2245 names -0.2603
-3.2245 nan -0.2603
-3.2245 nearest -0.3010
-3.2245 need -0.3008
-3.0346 new -0.3005
-2.6033 news -0.2532
-3.1010 next -0.3007
-3.0665 nice -0.2568
-3.0665 nine -0.2578
-3.1793 nineteen -0.2588
-3.2245 nirvana -0.2603
-2.8205 no -0.2550
-3.1793 note -0.2996
-3.1793 nothing -0.2603
-3.1384 now -0.2603
-3.1793 np -0.2603
-3.0665 number -0.2987
-2.8021 o'clock -0.2578
-2.6033 of -0.2838
-2.7844 off -0.2518
-2.8598 ok -0.2574
-3.1793 old -0.2995
-2.5498 on -0.2483
-2.7844 one -0.2573
-2.9771 online -0.2603
-2.4431 open -0.2876
-3.2245 or -0.3009
-3.1384 our -0.3005
-3.2245 out -0.3006
-3.2245 oven -0.2987
-3.1793 page -0.2574
-3.1793 paris -0.2570
-3.1793 pc -0.2585
-3.2245 pdf -0.3010
-3.2245 performance -0.2998
-3.2245 perry -0.2603
-2.9510 personal -0.2996
-3.1793 pharmacy -0.2597
-3.2245 philipp -0.2603
-3.1384 physics -0.2998
-2.9771 pictures -0.2590
-3.1793 place -0.2570
-2.9030 play -0.2983
-3.1384 player -0.2602
-3.1010 playing -0.2985
-2.3145 please -0.2468
-3.0049 pm -0.2603
-3.2245 point -0.2603
-3.2245 police -0.2603
-3.2245 possible -0.3010
-2.9263 power -0.2599
-3.1384 powerpoint -0.2585
-3.2245 practice -0.3003
-3.1793 pretty -0.3009
-3.1793 problem -0.2603
-3.1793 problemo -0.2603
-3.1793 process -0.2603
-2.7675 program -0.2590
-3.1793 programmed -0.2954
-3.1793 punk -0.2603
-2.9771 question -0.2579
-3.2245 quickly -0.2603
-3.1010 quiet -0.2574
-3.1793 quit -0.2603
-2.9510 read -0.2889
-3.2245 reader -0.2603
-3.1384 really -0.2985
-3.1010 recognition -0.2603
-3.1010 recording -0.2603
-3.1010 reload -0.3009
-3.2245 remember -0.2986
-2.8205 remind -0.2973
-3.0346 reminder -0.2555
-3.0049 reminders -0.2603
-3.0665 remove -0.2974
-3.2245 repeat -0.2603
-3.1793 restricted -0.2991
-3.2245 restrictions -0.2603
-3.0665 results -0.2603
-3.1010 right -0.2602
-3.2245 rihanna -0.2603
-3.2245 rock -0.3009
-3.2245 rolling -0.3010
-3.2245 roots -0.2603
-3.1793 run -0.2986
-3.0665 running -0.2598
-3.1793 said -0.2603
-3.1010 san -0.3009
-3.0346 save -0.2994
-3.0346 saver -0.3001
-3.1010 saving -0.3003
-3.1010 say -0.2531
-3.1793 science -0.2998
-2.5921 search -0.2944
-3.2245 searching -0.2986
-3.0346 second -0.2595
-3.2245 seconds -0.2603
-3.0665 see -0.2921
-3.1793 self -0.3007
-3.1793 send -0.3009
-3.1010 series -0.2574
-2.7512 set -0.2973
-3.0665 settings -0.2574
-3.1010 seven -0.2578
-3.1793 seventeen -0.2588
-3.2245 shakira -0.2603
-3.2245 share -0.3010
-3.2245 short -0.3010
-2.4431 show -0.2878
-3.1384 shutdown -0.2950
-3.1010 silent -0.2593
-3.2245 simon -0.2603
-3.1010 six -0.2578
-3.1793 sixteen -0.2588
-3.2245 skills -0.2603
-3.2245 slayer -0.2603
-3.1793 smith -0.2603
-3.1384 so -0.2994
-3.0665 soccer -0.3000
-2.6914 some -0.2992
-3.0665 something -0.2603
-3.1793 sometimes -0.2603
-3.2245 songs -0.2603
-3.1793 sorry -0.2603
-3.1793 sound -0.3007
-3.1793 sounds -0.3005
-2.8397 speak -0.2999
-3.1793 speaker -0.3009
-2.9771 speech -0.3005
-3.1384 sports -0.2998
-3.1010 spotify -0.2579
-3.1793 stand -0.2994
-2.6514 start -0.2459
-3.2245 starting -0.2603
-3.2245 stefan -0.2603
-3.2245 sting -0.2603
-3.2245 stones -0.2603
-2.8808 stop -0.2976
-3.2245 store -0.2603
-3.1793 stove -0.2603
-3.1793 stripes -0.2603
-3.2245 supermarket -0.2983
-2.8021 switch -0.2954
-3.2245 system -0.2603
-3.2245 take -0.2951
-3.1793 talk -0.2980
-2.7844 teach -0.2944
-3.1793 television -0.2603
-3.0665 tell -0.2973
-3.0049 ten -0.2578
-2.9510 test -0.2585
-3.0665 thank -0.2954
-3.1384 thanks -0.2583
-2.7675 that -0.2551
-3.1010 that's -0.3008
-2.0023 the -0.2876
-3.2245 them -0.2983
-3.1793 then -0.2574
-3.1384 there -0.3005
-3.1384 these -0.2994
-3.2245 they -0.3010
-3.1793 thing -0.2954
-3.2245 think -0.2603
-3.0665 third -0.2595
-3.1793 thirteen -0.2588
-3.0346 thirty -0.2583
-2.9263 this -0.2936
-3.2245 thomas -0.2603
-2.9263 three -0.2576
-3.0346 threshold -0.2603
-3.1793 thx -0.2603
-3.2245 timberlake -0.2603
-2.9771 time -0.2571
-3.0346 timer -0.2555
-2.9030 timers -0.2571
-2.2647 to -0.2808
-2.7354 today -0.2592
-3.2245 tommy -0.2603
-2.9030 tomorrow -0.2590
-3.2245 top -0.2603
-3.2245 totally -0.3009
-2.9510 train -0.2571
-3.2245 trash -0.3010
-3.2245 true -0.2603
-3.2245 trying -0.2980
-3.1793 turn -0.2989
-2.7844 tv -0.2566
-3.1010 twelve -0.2579
-2.9510 twenty -0.2562
-3.1384 twitter -0.2983
-2.8598 two -0.2576
-3.2245 understand -0.2603
-3.1010 up -0.2977
-2.9771 update -0.2577
-3.0346 updates -0.2590
-3.1010 us -0.2602
-3.2245 usher -0.2603
-3.2245 using -0.3009
-3.2245 ussa -0.2603
-3.2245 uwe -0.2603
-3.2245 very -0.3010
-3.2245 videos -0.2998
-2.9771 voice -0.2600
-3.1793 wake -0.2972
-3.1384 want -0.2980
-3.1793 was -0.3009
-3.1384 watch -0.2927
-3.1384 way -0.2972
-3.0346 we -0.2596
-2.6644 weather -0.2539
-2.9510 web -0.2589
-2.3983 what -0.2800
-2.7844 what's -0.2906
-3.0665 whats -0.2918
-2.9263 when -0.2904
-2.8205 where -0.2955
-3.2245 while -0.2603
-3.1793 white -0.3009
-2.8397 who -0.2966
-3.0665 why -0.2586
-3.2245 wiki -0.2994
-3.1793 wikipedia -0.2993
-3.1384 will -0.2538
-3.1384 windows -0.2603
-3.1793 with -0.2538
-3.2245 wolfgang -0.2603
-3.1793 wolfram -0.3009
-3.1793 won't -0.2603
-3.1384 wonder -0.2988
-3.1793 word -0.2574
-2.9510 work -0.2565
-3.2245 world -0.3005
-3.0346 would -0.3002
-3.1793 wow -0.3003
-3.2245 wrong -0.2603
-3.1793 year -0.2603
-3.1384 years -0.2603
-3.0049 yes -0.2512
-3.1384 york -0.2600
-2.0168 you -0.2261
-3.1793 you're -0.3009
-2.7203 your -0.2993
-3.1384 yourself -0.2603
-3.2245 youtube -0.2603
-3.2245 z -0.2603
-3.2245 zz -0.3010

\2-grams:
-2.9814 <s> a -0.2861
-2.9814 <s> abort 0.0000
-3.2824 <s> ac 0.0000
-2.6803 <s> activate 0.0000
-3.2824 <s> adobe 0.0000
-3.2824 <s> alexander 0.0000
-3.2824 <s> amt 0.0000
-3.2824 <s> and -0.2840
-2.9814 <s> any 0.0000
-2.9814 <s> app 0.0000
-3.2824 <s> arduino 0.0000
-2.5834 <s> are -0.1362
-2.6803 <s> ask -0.1761
-2.0271 <s> at -0.0177
-3.2824 <s> azize 0.0000
-2.9814 <s> batch 0.0000
-3.2824 <s> bb 0.0000
-2.5042 <s> be -0.0580
-3.2824 <s> beatsteaks 0.0000
-3.2824 <s> benedikt 0.0000
-3.2824 <s> berlin -0.1761
-3.2824 <s> beyonce 0.0000
-2.9814 <s> bob 0.0000
-2.9814 <s> boring 0.0000
-3.2824 <s> boss 0.0000
-3.2824 <s> bosse 0.0000
-2.6803 <s> bring 0.0000
-3.2824 <s> bruno 0.0000
-2.6803 <s> bye 0.0000
-2.9814 <s> calculator 0.0000
-1.6196 <s> can -0.0726
-2.9814 <s> cancel 0.0000
-3.2824 <s> carla 0.0000
-2.2032 <s> change 0.0000
-2.8053 <s> check -0.1249
-3.2824 <s> chef 0.0000
-3.2824 <s> chicago 0.0000
-3.2824 <s> christian 0.0000
-3.2824 <s> christoph 0.0000
-2.5042 <s> close 0.0000
-3.2824 <s> cologne 0.0000
-3.2824 <s> colon 0.0000
-3.2824 <s> comma 0.0000
-2.9814 <s> cool -0.1761
-3.2824 <s> could -0.1761
-3.2824 <s> create 0.0000
-2.9814 <s> creo 0.0000
-3.2824 <s> cro 0.0000
-2.9814 <s> cu 0.0000
-3.2824 <s> daft 0.0000
-2.9814 <s> date -0.1761
-3.2824 <s> day -0.1963
-3.2824 <s> days 0.0000
-2.9814 <s> deactivate 0.0000
-3.2824 <s> deichkind 0.0000
-3.2824 <s> dennis 0.0000
-3.2824 <s> did 0.0000
-2.9814 <s> disable 0.0000
-2.0519 <s> do -0.1526
-2.9814 <s> done 0.0000
-3.2824 <s> duesseldorf 0.0000
-3.2824 <s> duisburg 0.0000
-3.2824 <s> eight -0.2688
-3.2824 <s> eighteen -0.1761
-3.2824 <s> eleven -0.2430
-3.2824 <s> elke 0.0000
-3.2824 <s> eminem 0.0000
-2.9814 <s> enable 0.0000
-2.9814 <s> end 0.0000
-2.5042 <s> energy -0.0969
-2.9814 <s> enter 0.0000
-3.2824 <s> essen 0.0000
-3.2824 <s> everything 0.0000
-2.9814 <s> exit 0.0000
-3.2824 <s> facebook -0.1091
-3.2824 <s> fifteen -0.2430
-2.5042 <s> find -0.0872
-3.2824 <s> firefox -0.1761
-3.2824 <s> five -0.1996
-3.2824 <s> florian 0.0000
-2.9814 <s> forty -0.1249
-3.2824 <s> four -0.1461
-3.2824 <s> fourteen -0.1761
-3.2824 <s> frank 0.0000
-3.2824 <s> frankfurt 0.0000
-3.2824 <s> from -0.2596
-3.2824 <s> get 0.0000
-2.8053 <s> give 0.0000
-2.6803 <s> go -0.1761
-2.3793 <s> good -0.0669
-2.9814 <s> good-bye 0.0000
-2.9814 <s> goodbye 0.0000
-2.6803 <s> google -0.1139
-3.2824 <s> hamburg -0.1761
-2.8053 <s> hello 0.0000
-3.2824 <s> help -0.2632
-3.2824 <s> hendrix 0.0000
-3.2824 <s> here -0.0872
-2.0783 <s> hey 0.0000
-2.8053 <s> hi 0.0000
-2.9814 <s> hide 0.0000
-1.9602 <s> how -0.0170
-2.8053 <s> how's -0.0969
-1.9602 <s> i -0.1931
-2.8053 <s> i'd 0.0000
-2.2410 <s> i'm 0.0000
-3.2824 <s> id 0.0000
-3.2824 <s> igor 0.0000
-2.2410 <s> ila -0.1226
-3.2824 <s> imagej 0.0000
-1.7383 <s> in -0.0766
-2.5834 <s> is -0.2640
-3.2824 <s> isabella 0.0000
-3.2824 <s> it -0.2872
-2.9814 <s> it's -0.1761
-3.2824 <s> itunes 0.0000
-3.2824 <s> jay 0.0000
-3.2824 <s> jens 0.0000
-3.2824 <s> jessica 0.0000
-3.2824 <s> jessy 0.0000
-3.2824 <s> jim 0.0000
-3.2824 <s> jimi 0.0000
-2.9814 <s> joe 0.0000
-3.2824 <s> johannes 0.0000
-3.2824 <s> justin 0.0000
-3.2824 <s> katy 0.0000
-3.2824 <s> kings 0.0000
-3.2824 <s> klaus 0.0000
-3.2824 <s> kyuss 0.0000
-2.8053 <s> let's -0.1761
-3.2824 <s> linux 0.0000
-2.9814 <s> listen -0.1761
-2.2032 <s> load -0.0300
-3.2824 <s> locate 0.0000
-3.2824 <s> london 0.0000
-2.9814 <s> look 0.0000
-3.2824 <s> los 0.0000
-3.2824 <s> mac 0.0000
-3.2824 <s> madonna 0.0000
-2.9814 <s> make 0.0000
-3.2824 <s> manuel 0.0000
-3.2824 <s> marvin 0.0000
-3.2824 <s> mathias 0.0000
-3.2824 <s> matlab -0.1761
-3.2824 <s> mehdi 0.0000
-3.2824 <s> metallica 0.0000
-2.9814 <s> michael 0.0000
-2.8053 <s> microsoft 0.0000
-3.2824 <s> minute 0.0000
-3.2824 <s> minutes -0.0596
-3.2824 <s> munich 0.0000
-2.8053 <s> music -0.1814
-2.2824 <s> my -0.2006
-3.2824 <s> nan 0.0000
-3.2824 <s> new -0.1761
-2.9814 <s> news -0.1249
-2.9814 <s> nice -0.2041
-3.2824 <s> nine -0.2553
-3.2824 <s> nineteen -0.1761
-3.2824 <s> nirvana 0.0000
-2.2410 <s> no -0.0280
-2.9814 <s> nothing 0.0000
-2.9814 <s> np 0.0000
-2.5834 <s> number 0.0000
-3.2824 <s> o'clock -0.0263
-2.1685 <s> ok 0.0000
-2.9814 <s> on -0.2884
-2.8053 <s> one -0.2009
-1.7026 <s> open -0.0269
-3.2824 <s> paris -0.1761
-3.2824 <s> philipp 0.0000
-2.9814 <s> pictures -0.1761
-2.5042 <s> play -0.0378
-2.2032 <s> please -0.2297
-3.2824 <s> point 0.0000
-2.9814 <s> power -0.2553
-3.2824 <s> powerpoint -0.1249
-3.2824 <s> pretty 0.0000
-2.9814 <s> quiet -0.1761
-2.9814 <s> quit 0.0000
-2.5834 <s> read -0.1597
-2.6803 <s> reload 0.0000
-2.4373 <s> remind 0.0000
-2.6803 <s> remove -0.0792
-3.2824 <s> rihanna 0.0000
-2.9814 <s> run 0.0000
-3.2824 <s> san 0.0000
-2.5042 <s> save 0.0000
-2.9814 <s> say -0.1761
-1.8845 <s> search -0.0272
-3.2824 <s> second -0.1761
-3.2824 <s> seconds 0.0000
-2.8053 <s> see -0.1461
-2.9814 <s> send 0.0000
-2.0271 <s> set 0.0000
-3.2824 <s> settings -0.0792
-3.2824 <s> seven -0.2430
-3.2824 <s> seventeen -0.1761
-3.2824 <s> shakira 0.0000
-1.6913 <s> show 0.0000
-2.9814 <s> shutdown -0.1249
-2.9814 <s> silent -0.1761
-3.2824 <s> simon 0.0000
-3.2824 <s> six -0.2430
-3.2824 <s> sixteen -0.1761
-3.2824 <s> slayer 0.0000
-2.9814 <s> sorry 0.0000
-2.5042 <s> speak -0.0580
-3.2824 <s> spotify -0.1761
-2.0783 <s> start -0.1413
-3.2824 <s> stefan 0.0000
-3.2824 <s> sting 0.0000
-2.2410 <s> stop 0.0000
-2.2824 <s> switch 0.0000
-2.9814 <s> talk 0.0000
-2.6803 <s> teach -0.1120
-3.2824 <s> ten -0.2688
-2.8053 <s> test -0.0872
-2.6803 <s> thank 0.0000
-2.8053 <s> thanks 0.0000
-2.9814 <s> that's -0.1761
-2.1363 <s> the -0.2616
-3.2824 <s> these -0.2218
-3.2824 <s> they 0.0000
-3.2824 <s> thirteen -0.1761
-2.9814 <s> thirty -0.1761
-2.9814 <s> this -0.2041
-3.2824 <s> thomas 0.0000
-3.2824 <s> three -0.1761
-2.9814 <s> thx 0.0000
-2.9814 <s> time -0.0969
-3.2824 <s> today -0.0212
-3.2824 <s> tommy 0.0000
-3.2824 <s> tomorrow -0.1347
-3.2824 <s> twelve -0.2430
-2.5042 <s> twenty -0.0458
-3.2824 <s> two -0.2083
-2.5042 <s> update -0.0512
-3.2824 <s> usher 0.0000
-3.2824 <s> ussa 0.0000
-3.2824 <s> uwe 0.0000
-3.2824 <s> wake -0.1761
-1.6913 <s> what -0.0539
-2.0783 <s> what's -0.0248
-2.5834 <s> whats 0.0000
-2.3282 <s> when 0.0000
-2.2410 <s> where -0.1027
-2.1363 <s> who 0.0000
-2.5834 <s> why 0.0000
-3.2824 <s> windows 0.0000
-3.2824 <s> wolfgang 0.0000
-2.9814 <s> wow 0.0000
-2.4373 <s> yes 0.0000
-2.3793 <s> you -0.2736
-2.9814 <s> you're 0.0000
-3.2824 <s> zz 0.0000
-2.0719 a birthday -0.1761
-1.7709 a bus -0.0969
-2.0719 a flight 0.0000
-1.4698 a headline -0.1192
-2.0719 a list -0.2430
-2.0719 a location -0.0378
-1.5948 a new -0.1761
-2.0719 a news -0.2937
-1.7709 a note 0.0000
-1.1688 a program -0.0235
-1.4698 a question -0.0512
-1.4698 a reminder 0.0000
-2.0719 a restricted -0.1761
-1.7709 a self 0.0000
-2.0719 a short 0.0000
-1.7709 a speaker 0.0000
-1.7709 a test -0.0872
-1.2937 a timer 0.0000
-1.1688 a train -0.0458
-1.5948 a tv -0.2467
-2.0719 a web -0.2762
-2.0719 a while 0.0000
-0.3010 able to -0.2863
-0.3010 abort </s> -0.3010
-0.9031 about anything -0.1761
-0.9031 about me -0.2584
-0.9031 about my -0.2963
-0.9031 about yourself 0.0000
-0.3010 ac dc 0.0000
-0.3010 access to -0.2981
-0.3010 accuracy </s> -0.3010
-0.6021 activate advanced 0.0000
-0.6021 activate teach -0.1120
-0.3010 active reminders -0.0580
-0.3010 adaptation </s> -0.3010
-0.3010 adaption </s> -0.3010
-0.3010 adobe pdf 0.0000
-0.3010 advanced speech -0.1761
-0.3010 after tomorrow -0.1347
-0.3010 again </s> -0.3010
-0.3010 age </s> -0.3010
-0.5229 alarm </s> -0.3010
-0.6990 alarm in -0.2570
-0.3010 alexander </s> -0.3010
-1.1761 all missed -0.1249
-1.0000 all reminders 0.0000
-1.0000 all running -0.1461
-1.4771 all the -0.2995
-0.6990 all timers -0.0726
-0.3010 alpha </s> -0.3010
-0.3010 alright </s> -0.3010
-1.2553 am </s> -0.3010
-0.6532 am i -0.2833
-0.9542 am impressed 0.0000
-0.9542 am looking 0.0000
-0.3010 amt </s> -0.3010
-0.3010 an alarm 0.0000
-1.4150 and find -0.2762
-1.1139 and goodbye 0.0000
-1.4150 and load -0.2852
-1.4150 and open -0.2964
-1.1139 and read -0.2499
-1.1139 and search -0.2868
-1.4150 and so -0.2218
-1.1139 and start -0.2840
-1.4150 and then -0.1761
-0.4771 angeles </s> -0.3010
-0.7782 angeles please -0.1347
-0.3010 annoying </s> -0.3010
-0.3010 any news -0.2863
-0.3010 anymore </s> -0.3010
-0.6021 anything </s> -0.3010
-0.6021 anything i -0.2923
-0.6021 app </s> -0.3010
-0.6021 app info 0.0000
-0.7782 apps folder 0.0000
-0.7782 apps for -0.2903
-0.7782 apps list -0.0969
-0.3010 arduino </s> -0.3010
-1.8808 are all -0.2863
-1.5798 are funny -0.1761
-1.5798 are nice -0.2041
-1.8808 are pretty 0.0000
-1.8808 are the -0.2995
-1.5798 are there -0.1249
-1.8808 are totally 0.0000
-1.1818 are we -0.0669
-0.5384 are you -0.2408
-1.8808 are your -0.2906
-0.3010 area </s> -0.3010
-0.3010 article </s> -0.3010
-0.3010 artists </s> -0.3010
-0.9031 ask that -0.2499
-0.9031 ask this -0.2553
-0.6021 ask you -0.2618
-0.9823 at eight -0.1091
-1.3802 at eleven -0.1761
-1.6812 at five -0.2825
-1.6812 at four -0.2553
-1.6812 at home -0.0969
-1.6812 at my -0.2717
-1.3802 at nine -0.1461
-1.6812 at one -0.2881
-1.3802 at seven -0.1761
-1.3802 at six -0.1761
-1.2041 at ten -0.1963
-1.6812 at three -0.2788
-1.6812 at twelve -0.2430
-1.6812 at two -0.2840
-0.3010 attend the -0.2995
-0.3010 audio engine 0.0000
-0.3010 australian </s> -0.3010
-0.3010 azize </s> -0.3010
-0.3010 back </s> -0.3010
-0.3010 band </s> -0.3010
-0.3010 basic speech -0.1761
-0.3010 batch test -0.0872
-0.3010 bb king 0.0000
-0.8451 be loud 0.0000
-1.1461 be nice -0.2553
-0.8451 be quiet -0.1761
-0.8451 be silent -0.1761
-0.3010 beatsteaks </s> -0.3010
-0.3010 benedikt </s> -0.3010
-0.6021 berlin </s> -0.3010
-0.6021 berlin to -0.2981
-0.4771 best guitar 0.0000
-0.7782 best match 0.0000
-0.3010 beyonce </s> -0.3010
-0.4771 bing </s> -0.3010
-0.7782 bing me -0.2938
-0.6021 birthday </s> -0.3010
-0.6021 birthday in -0.2735
-0.3010 blog please -0.1347
-0.6021 bob dylan 0.0000
-0.6021 bob marley 0.0000
-0.3010 boring </s> -0.3010
-0.3010 boss </s> -0.3010
-0.3010 bosse </s> -0.3010
-0.3010 bring me -0.2663
-0.3010 british </s> -0.3010
-0.3979 browser </s> -0.3010
-1.0000 browser please -0.2977
-0.3010 bruno mars 0.0000
-0.7782 bundesliga </s> -0.3010
-0.7782 bundesliga results 0.0000
-0.7782 bundesliga today -0.0212
-0.4260 bus </s> -0.3010
-0.9031 bus coming 0.0000
-0.4771 bye </s> -0.3010
-0.7782 bye bye -0.1249
-0.3010 calculator </s> -0.3010
-0.3010 call me -0.2986
-2.1206 can count 0.0000
-1.5185 can do -0.2463
-2.1206 can help -0.2632
-1.4216 can i -0.2788
-2.1206 can play -0.2808
-2.1206 can say -0.2430
-2.1206 can shutdown -0.2218
-2.1206 can start -0.2926
-2.1206 can tell 0.0000
-2.1206 can understand 0.0000
-0.4304 can you -0.2130
-0.3010 canadian </s> -0.3010
-0.3010 cancel </s> -0.3010
-0.3010 carla </s> -0.3010
-0.3010 catch the -0.2995
-0.3010 cats </s> -0.3010
-0.3802 change language 0.0000
-1.0792 change voice -0.0969
-0.7782 check for -0.2680
-0.7782 check internet -0.2041
-0.7782 check the -0.2583
-0.3010 chef </s> -0.3010
-0.3010 chicago </s> -0.3010
-0.3010 christian </s> -0.3010
-0.3010 christoph </s> -0.3010
-0.3010 chrome </s> -0.3010
-1.0792 close all -0.2041
-0.7782 close last -0.1761
-1.0792 close mozilla 0.0000
-0.7782 close the -0.2965
-0.7782 closest hospital 0.0000
-0.7782 closest pharmacy -0.1761
-0.7782 closest supermarket 0.0000
-0.3010 cologne </s> -0.3010
-0.3010 colon </s> -0.3010
-0.3010 come back 0.0000
-0.3010 coming </s> -0.3010
-0.3010 comma </s> -0.3010
-0.3010 command </s> -0.3010
-0.7782 commands ila -0.2237
-0.7782 commands please -0.1347
-0.7782 commands you -0.2867
-0.3010 completely wrong 0.0000
-0.6021 computer </s> -0.3010
-0.6021 computer in -0.2855
-0.3010 connected to -0.2863
-0.4771 connection </s> -0.3010
-0.7782 connection from -0.2808
-0.6021 cool </s> -0.3010
-0.9031 cool don't -0.2218
-0.9031 cool isn't 0.0000
-0.3010 correct </s> -0.3010
-0.6021 could show -0.1203
-0.6021 could you -0.2947
-0.3010 count </s> -0.3010
-0.3010 create a -0.2936
-0.3010 created you -0.2669
-0.6021 creo </s> -0.3010
-0.6021 creo elements 0.0000
-0.3010 cro </s> -0.3010
-0.3010 cu </s> -0.3010
-0.3010 daft punk 0.0000
-0.3010 data </s> -0.3010
-0.6021 date </s> -0.3010
-0.6021 date today -0.0212
-0.6690 day </s> -0.3010
-1.1461 day after 0.0000
-1.1461 day in -0.2735
-0.8451 day is -0.2808
-0.3010 days </s> -0.3010
-0.3010 dc </s> -0.3010
-0.3010 deactivate teach -0.1120
-0.3010 default speech -0.1761
-0.3010 definitely it's -0.2430
-0.3010 deichkind </s> -0.3010
-0.3010 dennis </s> -0.3010
-0.3010 dialogues ila -0.2817
-0.3010 did i -0.2923
-0.4771 directions from -0.2596
-0.7782 directions to -0.2863
-0.3010 disable teach -0.1120
-0.3010 distance </s> -0.3010
-0.9266 do </s> -0.3010
-1.5798 do a -0.2936
-1.2788 do i -0.2648
-1.5798 do list -0.0969
-1.8808 do we -0.2632
-0.5798 do you -0.2686
-0.7782 does ila -0.2915
-0.7782 does it -0.2730
-0.7782 does that -0.2762
-0.4771 don't want 0.0000
-0.7782 don't you -0.2995
-0.3010 done </s> -0.3010
-0.3010 drugstore </s> -0.3010
-0.3010 duesseldorf </s> -0.3010
-0.3010 duisburg </s> -0.3010
-0.3010 dylan </s> -0.3010
-1.1461 eight </s> -0.3010
-1.1461 eight minutes -0.0596
-0.6690 eight o'clock 0.0000
-0.8451 eight pm 0.0000
-0.6021 eighteen </s> -0.3010
-0.6021 eighteen minutes -0.0596
-0.3010 electro mix 0.0000
-0.3010 elements </s> -0.3010
-0.9031 eleven </s> -0.3010
-0.9031 eleven am -0.2762
-0.9031 eleven minutes -0.0596
-0.9031 eleven o'clock -0.0263
-0.3010 elke </s> -0.3010
-0.3010 email </s> -0.3010
-0.3010 eminem </s> -0.3010
-0.3010 enable teach -0.1120
-0.3010 end </s> -0.3010
-0.9031 energy </s> -0.3010
-0.6021 energy saver 0.0000
-0.9031 energy saving 0.0000
-0.3010 engine </s> -0.3010
-0.6021 english </s> -0.3010
-0.6021 english please -0.1347
-0.3010 enter personal -0.1919
-0.3010 essen </s> -0.3010
-0.3010 ever </s> -0.3010
-0.3010 everything alright 0.0000
-0.6021 excel </s> -0.3010
-0.6021 excel and -0.2663
-0.3010 exit </s> -0.3010
-0.3010 exiting </s> -0.3010
-0.3010 explorer </s> -0.3010
-0.4472 facebook </s> -0.3010
-1.1461 facebook page -0.1761
-1.1461 facebook please -0.1347
-0.3010 famous artists 0.0000
-0.3010 fast </s> -0.3010
-0.6021 favorite band 0.0000
-0.6021 favorite tv -0.2467
-0.4771 feeling </s> -0.3010
-0.7782 feeling good -0.2825
-0.3010 fetch the -0.2995
-0.9031 fifteen </s> -0.3010
-0.4260 fifteen minutes -0.0367
-0.7782 find a -0.2666
-1.2553 find and -0.2663
-0.9542 find me -0.2199
-1.2553 find music -0.2407
-1.2553 find pictures -0.1761
-1.2553 find the -0.2995
-0.6021 firefox </s> -0.3010
-0.6021 firefox browser -0.0792
-0.6990 first </s> -0.3010
-0.5229 first headline -0.1192
-0.6812 five </s> -0.3010
-0.6021 five minutes -0.0248
-1.3802 five o'clock -0.0263
-0.3010 flight </s> -0.3010
-0.3010 florian </s> -0.3010
-0.3010 folder </s> -0.3010
-0.3010 food store 0.0000
-1.4367 for </s> -0.3010
-1.0107 for a -0.2545
-1.9138 for fifteen -0.0969
-1.9138 for five -0.1761
-1.0687 for me -0.2558
-1.9138 for music -0.2407
-1.9138 for ten -0.1963
-1.4367 for that -0.2361
-1.6128 for the -0.2919
-1.9138 for thirty -0.1761
-1.6128 for tomorrow -0.2139
-1.1357 for updates 0.0000
-1.3118 for us 0.0000
-1.9138 for videos 0.0000
-1.0792 forty </s> -0.3010
-0.6021 forty five -0.0348
-0.7782 forty minutes -0.0596
-0.5229 four </s> -0.3010
-1.0000 four minutes -0.0596
-1.0000 four o'clock -0.0263
-0.6021 fourteen </s> -0.3010
-0.6021 fourteen minutes -0.0596
-0.4260 francisco </s> -0.3010
-0.9031 francisco to -0.2981
-0.3010 frank </s> -0.3010
-0.3010 frankfurt </s> -0.3010
-1.0414 from </s> -0.3010
-1.3424 from berlin -0.1761
-0.7404 from here 0.0000
-1.0414 from my -0.2817
-1.3424 from paris -0.1761
-1.3424 from san 0.0000
-0.3010 full power -0.1461
-0.6021 funny </s> -0.3010
-0.6021 funny sometimes 0.0000
-0.3010 future hold 0.0000
-0.3010 game today -0.2900
-0.3010 geolocation </s> -0.3010
-0.6690 german </s> -0.3010
-1.1461 german bundesliga -0.2218
-0.6690 german please -0.1347
-0.3010 get directions 0.0000
-0.3010 give me -0.2740
-0.7270 go </s> -0.3010
-1.2041 go from -0.2139
-0.6021 go to -0.2893
-0.4771 going </s> -0.3010
-0.7782 going on -0.2948
-0.6021 gone </s> -0.3010
-0.6021 gone for -0.2564
-0.7782 good </s> -0.3010
-1.0792 good bye -0.1249
-1.3802 good day -0.1963
-1.3802 good for -0.2793
-0.9031 good morning 0.0000
-1.3802 good thank 0.0000
-0.3010 good-bye </s> -0.3010
-0.3010 goodbye </s> -0.3010
-0.6990 google </s> -0.3010
-1.3010 google chrome 0.0000
-1.3010 google for -0.2623
-1.3010 google please -0.1347
-0.8239 google that -0.2218
-0.4771 grammar mode -0.1627
-0.7782 grammar restrictions 0.0000
-0.3010 guitar player -0.1249
-0.6021 hamburg </s> -0.3010
-0.6021 hamburg ila -0.2237
-0.3010 happening here -0.0872
-0.3010 happens then -0.1761
-0.8451 have a -0.2861
-1.1461 have access 0.0000
-1.1461 have in -0.2972
-1.1461 have the -0.2965
-0.8451 have to -0.2952
-0.4658 headline </s> -0.3010
-1.2788 headline one -0.2319
-1.2788 headline three -0.1761
-1.2788 headline two -0.2083
-0.9542 hear </s> -0.3010
-0.9542 hear me -0.2584
-1.2553 hear music -0.2407
-0.6532 hear some -0.1296
-0.3010 hell is -0.2971
-0.4771 hello </s> -0.3010
-0.7782 hello ila -0.2237
-1.0792 help </s> -0.3010
-0.6021 help me -0.2914
-1.0792 help with -0.1761
-1.0792 help you -0.2995
-0.3010 hendrix </s> -0.3010
-0.4102 here </s> -0.3010
-0.9542 here to -0.2893
-1.2041 hey </s> -0.3010
-1.5051 hey ho 0.0000
-0.3912 hey ila -0.1081
-0.4771 hi </s> -0.3010
-0.7782 hi ila -0.2237
-0.3010 hide yourself 0.0000
-0.3010 ho </s> -0.3010
-0.3010 hold for -0.2793
-0.4260 home </s> -0.3010
-1.2041 home it's -0.2430
-1.2041 home please -0.1347
-0.3010 hospital quickly 0.0000
-0.3010 hour </s> -0.3010
-0.3010 hours </s> -0.3010
-1.3979 how </s> -0.3010
-0.7447 how are -0.1526
-1.6990 how i -0.2923
-0.6576 how is -0.1787
-1.3979 how old 0.0000
-0.4260 how's the -0.2599
-0.9031 how's your -0.2906
-1.3979 i </s> -0.3010
-1.3979 i am -0.1919
-1.3979 i ask -0.1761
-1.6990 i can -0.2944
-2.0000 i come 0.0000
-1.6990 i don't -0.1249
-1.3979 i have -0.1549
-1.6990 i leave 0.0000
-1.3979 i live 0.0000
-1.6990 i miss 0.0000
-2.0000 i need 0.0000
-2.0000 i really -0.2218
-2.0000 i repeat 0.0000
-1.6990 i said 0.0000
-2.0000 i teach -0.2319
-1.6990 i will -0.1249
-1.6990 i won't 0.0000
-1.6990 i wonder 0.0000
-1.3979 i work -0.0872
-1.3010 i would -0.0669
-0.4771 i'd like -0.1413
-0.7782 i'd say -0.2430
-1.1461 i'm back 0.0000
-1.4472 i'm feeling -0.2218
-1.1461 i'm gone 0.0000
-1.4472 i'm leaving 0.0000
-0.6690 i'm looking 0.0000
-1.4472 i'm searching 0.0000
-1.4472 i'm trying 0.0000
-0.3010 i've missed -0.2218
-0.3010 id like -0.1413
-0.3010 if you -0.2851
-0.3010 igor </s> -0.3010
-0.7877 ila </s> -0.3010
-1.6628 ila are -0.1526
-1.3617 ila can -0.0943
-1.9638 ila check -0.2218
-1.6628 ila get 0.0000
-1.9638 ila give 0.0000
-1.6628 ila how -0.2148
-1.9638 ila how's -0.2430
-1.9638 ila i -0.2923
-1.9638 ila let's -0.2632
-1.3617 ila please -0.2668
-1.9638 ila show -0.1203
-1.6628 ila stand 0.0000
-1.9638 ila that's -0.2430
-1.9638 ila this -0.2041
-1.9638 ila voice -0.2430
-1.1856 ila what -0.1622
-0.3010 imagej </s> -0.3010
-0.6021 important commands -0.2218
-0.6021 important thing 0.0000
-0.3010 impressed </s> -0.3010
-2.0569 in chicago 0.0000
-2.0569 in eight -0.2688
-2.0569 in eighteen -0.1761
-2.0569 in eleven -0.2430
-1.7559 in fifteen -0.0969
-2.0569 in five -0.1761
-1.4548 in forty -0.0669
-2.0569 in four -0.2553
-2.0569 in fourteen -0.1761
-2.0569 in hamburg -0.1761
-2.0569 in london 0.0000
-2.0569 in los 0.0000
-2.0569 in mind 0.0000
-2.0569 in munich 0.0000
-2.0569 in new -0.1761
-2.0569 in nine -0.2553
-2.0569 in nineteen -0.1761
-1.2118 in one -0.2009
-2.0569 in san 0.0000
-2.0569 in seven -0.2430
-2.0569 in seventeen -0.1761
-2.0569 in six -0.2430
-2.0569 in sixteen -0.1761
-1.7559 in ten -0.1963
-1.5798 in the -0.2934
-2.0569 in thirteen -0.1761
-1.5798 in thirty -0.0669
-1.4548 in three -0.2041
-1.7559 in twelve -0.1761
-1.7559 in twenty -0.2218
-1.2118 in two -0.1648
-0.3010 indian </s> -0.3010
-0.3010 info </s> -0.3010
-0.6021 inside my -0.2866
-0.6021 inside your -0.2576
-0.3010 intelligence restricted -0.1761
-0.3010 interests </s> -0.3010
-0.6990 internet </s> -0.3010
-0.6990 internet connection -0.1249
-1.0000 internet explorer 0.0000
-2.0414 is </s> -0.3010
-1.7404 is a -0.2936
-2.0414 is boss 0.0000
-2.0414 is correct 0.0000
-2.0414 is florian 0.0000
-2.0414 is happening 0.0000
-1.3424 is it -0.1761
-1.7404 is my -0.2511
-1.4393 is on -0.1187
-1.4393 is playing 0.0000
-2.0414 is really -0.2218
-0.6990 is the -0.2396
-2.0414 is there -0.2218
-1.7404 is this -0.2553
-2.0414 is what -0.2000
-1.2632 is your -0.1549
-0.3010 isabella </s> -0.3010
-0.3010 isn't it -0.2109
-0.7270 it </s> -0.3010
-1.2041 it going -0.1249
-1.5051 it is -0.2971
-1.2041 it mean 0.0000
-0.9031 it on -0.1635
-1.5051 it would -0.2632
-0.9031 it's a -0.2973
-0.6021 it's annoying 0.0000
-0.9031 it's true 0.0000
-0.3010 itunes </s> -0.3010
-0.3010 jackson </s> -0.3010
-0.3010 jay z 0.0000
-0.3010 jens </s> -0.3010
-0.3010 jessica </s> -0.3010
-0.3010 jessy </s> -0.3010
-0.3010 jim smith 0.0000
-0.3010 jimi hendrix 0.0000
-0.6021 joe </s> -0.3010
-0.6021 joe smith 0.0000
-0.3010 johannes </s> -0.3010
-0.3010 justin timberlake 0.0000
-0.3010 katy perry 0.0000
-0.3010 kids in -0.2735
-0.3010 kind of -0.2937
-0.3010 king </s> -0.3010
-0.3010 kings of -0.2937
-0.3010 klaus </s> -0.3010
-0.9294 know about 0.0000
-1.2304 know arduino 0.0000
-1.2304 know me -0.2584
-1.2304 know my -0.2511
-1.2304 know soccer -0.1461
-1.5315 know what's -0.2881
-0.9294 know where -0.2389
-0.3010 kyuss </s> -0.3010
-0.3010 language to -0.2520
-0.6021 last </s> -0.3010
-0.6021 last process 0.0000
-0.3010 later </s> -0.3010
-0.7782 latest news -0.2863
-0.7782 latest physics 0.0000
-0.7782 latest soccer -0.1461
-0.3010 learning </s> -0.3010
-0.3010 leave </s> -0.3010
-0.3010 leaving </s> -0.3010
-0.3010 leon </s> -0.3010
-0.7782 let's go -0.2109
-0.7782 let's see -0.2041
-1.0792 let's start -0.2926
-1.0792 let's watch -0.1249
-0.3010 life </s> -0.3010
-0.3010 lights please -0.1347
-1.4150 like in -0.2972
-0.5119 like to -0.2617
-1.1139 like today -0.0212
-1.1139 like tomorrow -0.1347
-0.3010 linux </s> -0.3010
-0.4260 list </s> -0.3010
-0.9031 list of -0.2863
-0.6021 listen </s> -0.3010
-0.6021 listen to -0.2863
-0.4771 listening </s> -0.3010
-0.7782 listening to -0.2863
-0.3010 live </s> -0.3010
-0.8451 load a -0.2545
-1.4472 load and -0.2840
-0.7482 load my -0.2563
-0.8451 load the -0.2730
-0.3010 locate me -0.2584
-0.3424 location </s> -0.3010
-1.3424 location of -0.2472
-0.3010 london </s> -0.3010
-0.3010 look for -0.2680
-0.3010 looking for -0.2505
-0.3010 los angeles 0.0000
-0.3010 loud </s> -0.3010
-0.3010 mac </s> -0.3010
-0.3010 made you -0.2669
-0.3010 madonna </s> -0.3010
-0.3010 make a -0.2898
-0.3010 manuel </s> -0.3010
-0.3010 maps </s> -0.3010
-0.3010 market today -0.0212
-0.3010 marley </s> -0.3010
-0.3010 mars </s> -0.3010
-0.3010 marvin </s> -0.3010
-0.3010 match to -0.2981
-0.3010 mathias </s> -0.3010
-0.6021 matlab </s> -0.3010
-0.6021 matlab for -0.2623
-0.3010 may speak -0.2688
-1.0296 me </s> -0.3010
-1.6580 me a -0.2377
-2.2601 me all -0.2553
-1.7830 me home -0.0512
-2.2601 me i'm -0.1963
-2.2601 me ila -0.2237
-1.9590 me in -0.2855
-2.2601 me my -0.2768
-1.6580 me of -0.2131
-2.2601 me one -0.2747
-2.2601 me our -0.2218
-2.2601 me pictures -0.1761
-1.7830 me please -0.1298
-1.4150 me some -0.0362
-0.8287 me the -0.1761
-1.2187 me to -0.2520
-2.2601 me up -0.2430
-1.7830 me what -0.1842
-1.9590 me your -0.2576
-0.3010 mean </s> -0.3010
-0.3010 meaning of -0.2863
-0.6021 meeting </s> -0.3010
-0.6021 meeting tomorrow -0.2374
-0.3010 mehdi </s> -0.3010
-0.3010 memory </s> -0.3010
-0.3010 metal mix 0.0000
-0.3010 metallica </s> -0.3010
-0.6021 michael </s> -0.3010
-0.6021 michael jackson 0.0000
-0.6021 microsoft excel 0.0000
-0.9031 microsoft powerpoint -0.1249
-0.9031 microsoft word -0.1761
-0.3010 mind </s> -0.3010
-0.3010 minute </s> -0.3010
-0.3701 minutes </s> -0.3010
-1.3554 minutes please -0.1347
-1.5315 minutes to -0.2893
-0.6021 miss </s> -0.3010
-0.6021 miss something 0.0000
-0.7782 missed </s> -0.3010
-0.4771 missed reminders -0.0580
-0.3010 mix </s> -0.3010
-0.6021 mode </s> -0.3010
-0.8653 mode off -0.1498
-1.0414 mode on -0.2688
-1.6435 mode right -0.0969
-0.4260 morning </s> -0.3010
-0.9031 morning ila -0.2237
-0.7782 most definitely 0.0000
-0.4771 most important 0.0000
-0.3010 mozilla firefox -0.1761
-0.3010 munich </s> -0.3010
-0.6532 music </s> -0.3010
-1.1303 music for -0.2385
-1.7324 music news -0.1249
-0.8873 music of -0.2131
-1.4314 music online 0.0000
-1.7324 music player -0.2218
-1.4867 my apps 0.0000
-1.6628 my blog 0.0000
-1.9638 my browser -0.2553
-1.9638 my electro 0.0000
-1.9638 my facebook -0.2688
-1.6628 my favorite 0.0000
-1.6628 my home -0.0969
-1.9638 my interests 0.0000
-1.1856 my location -0.0378
-1.9638 my metal 0.0000
-0.9638 my name -0.0637
-1.6628 my news -0.1249
-1.9638 my pc -0.1761
-1.2648 my personal -0.1597
-1.6628 my place 0.0000
-1.9638 my practice 0.0000
-1.9638 my rock 0.0000
-1.9638 my to -0.2863
-1.9638 my twitter -0.2218
-1.6628 my work -0.0458
-0.4337 name </s> -0.3010
-1.2788 name again 0.0000
-1.2788 name is -0.2931
-1.5798 name really -0.2218
-0.3010 names </s> -0.3010
-0.3010 nan </s> -0.3010
-0.3010 nearest food 0.0000
-0.3010 need help -0.2632
-1.0792 new command 0.0000
-0.7782 new voice -0.0969
-0.6021 new york 0.0000
-0.4771 news </s> -0.3010
-1.4771 news of -0.2304
-1.4771 news on -0.2884
-1.3010 news please -0.1347
-1.4771 news today -0.0212
-1.7782 news update -0.2730
-0.9031 next bus -0.2430
-0.9031 next drugstore 0.0000
-0.9031 next pharmacy -0.1761
-0.9031 next thing 0.0000
-0.6990 nice </s> -0.3010
-1.0000 nice if 0.0000
-0.6990 nice to -0.2803
-1.0000 nine </s> -0.3010
-1.0000 nine minutes -0.0596
-0.6990 nine o'clock -0.0263
-1.0000 nine pm 0.0000
-0.6021 nineteen </s> -0.3010
-0.6021 nineteen minutes -0.0596
-0.3010 nirvana </s> -0.3010
-1.0000 no </s> -0.3010
-1.1761 no i -0.2923
-1.4771 no ila -0.2963
-0.8751 no no -0.1663
-1.1761 no problem 0.0000
-1.1761 no problemo 0.0000
-1.4771 no that's -0.2430
-0.3010 note on -0.1549
-0.3010 nothing </s> -0.3010
-0.3010 now </s> -0.3010
-0.3010 np </s> -0.3010
-1.0000 number five -0.1996
-1.0000 number four -0.1461
-1.0000 number one -0.2319
-1.0000 number three -0.1761
-1.0000 number two -0.2083
-0.3291 o'clock </s> -0.3010
-1.5051 o'clock in -0.2894
-1.7782 of cats 0.0000
-1.7782 of daft 0.0000
-1.7782 of famous 0.0000
-1.7782 of jimi 0.0000
-1.7782 of kyuss 0.0000
-1.7782 of leon 0.0000
-1.4771 of life 0.0000
-1.7782 of metallica 0.0000
-1.7782 of my -0.2915
-1.7782 of new -0.1761
-1.4771 of our -0.1249
-1.7782 of san 0.0000
-1.7782 of something 0.0000
-0.9331 of the -0.2872
-1.4771 of these -0.1249
-1.7782 of this -0.2788
-1.4771 of today -0.0212
-1.7782 of you -0.2669
-1.4771 of your -0.2798
-0.5315 off </s> -0.3010
-1.5315 off my -0.2963
-0.7533 off the -0.2872
-1.1139 ok </s> -0.3010
-1.1139 ok bye -0.2218
-0.7160 ok ila -0.2667
-1.1139 ok let's -0.2218
-1.1139 ok sounds 0.0000
-0.3010 old are -0.1526
-1.1461 on </s> -0.3010
-1.5441 on cats 0.0000
-1.8451 on exit 0.0000
-1.8451 on my -0.2963
-1.8451 on right -0.0969
-1.8451 on start -0.2840
-0.5663 on the -0.2533
-1.2430 on tv -0.2467
-1.8451 on your -0.2906
-0.8325 one </s> -0.3010
-1.5315 one day -0.1963
-1.0544 one hour 0.0000
-1.5315 one minute 0.0000
-1.5315 one o'clock -0.0263
-1.2304 one of -0.2863
-1.2304 one question -0.0512
-1.2304 one year 0.0000
-0.3010 online </s> -0.3010
-1.1950 open a -0.2545
-1.9731 open and -0.2840
-1.6721 open bing -0.1249
-1.6721 open email 0.0000
-1.3711 open facebook -0.1091
-1.3711 open google -0.1461
-1.1950 open headline -0.2264
-1.9731 open internet -0.2553
-1.6721 open maps 0.0000
-1.0700 open my -0.2511
-1.9731 open settings -0.0792
-1.9731 open spotify -0.2430
-1.1950 open the -0.2681
-1.9731 open twitter -0.1249
-1.9731 open word -0.1761
-1.9731 open youtube 0.0000
-0.3010 or bus -0.0969
-0.7782 our location -0.0378
-0.7782 our meeting -0.1761
-0.7782 our system 0.0000
-0.3010 out when -0.2304
-0.3010 oven in -0.2735
-0.6021 page </s> -0.3010
-0.6021 page please -0.1347
-0.6021 paris </s> -0.3010
-0.6021 paris to -0.2981
-0.6021 pc </s> -0.3010
-0.6021 pc for -0.2623
-0.3010 pdf reader 0.0000
-0.3010 performance of -0.2472
-0.3010 perry </s> -0.3010
-0.6532 personal data 0.0000
-0.5563 personal news -0.0911
-0.6021 pharmacy </s> -0.3010
-0.6021 pharmacy and -0.2663
-0.3010 philipp </s> -0.3010
-0.3010 physics news -0.0911
-0.6021 pictures </s> -0.3010
-0.6021 pictures of -0.2711
-0.6021 place </s> -0.3010
-0.6021 place to -0.2923
-1.0414 play music -0.1919
-1.3424 play one -0.2747
-0.4393 play some -0.1296
-0.7782 player </s> -0.3010
-0.4771 player ever 0.0000
-0.6021 playing in -0.2894
-0.6021 playing soccer -0.2041
-0.4973 please </s> -0.3010
-2.1206 please check -0.2218
-2.1206 please find -0.2499
-2.1206 please for -0.2903
-2.1206 please how -0.1931
-2.1206 please ila -0.2237
-1.5185 please open -0.2624
-1.8195 please play -0.1047
-2.1206 please read -0.2762
-1.3424 please remind 0.0000
-2.1206 please show -0.1203
-1.6435 please start -0.2752
-1.8195 please switch -0.2109
-0.3010 pm </s> -0.3010
-0.3010 point </s> -0.3010
-0.3010 police </s> -0.3010
-0.3010 possible dialogues 0.0000
-0.5229 power </s> -0.3010
-1.0000 power saver 0.0000
-1.0000 power saving 0.0000
-0.4771 powerpoint </s> -0.3010
-0.7782 powerpoint for -0.2623
-0.3010 practice program -0.2888
-0.3010 pretty cool -0.1761
-0.3010 problem </s> -0.3010
-0.3010 problemo </s> -0.3010
-0.3010 process </s> -0.3010
-0.3259 program </s> -0.3010
-1.5563 program of -0.2863
-0.3010 programmed you -0.2669
-0.3010 punk </s> -0.3010
-0.3590 question </s> -0.3010
-1.2041 question is -0.2971
-0.3010 quickly </s> -0.3010
-0.6021 quiet </s> -0.3010
-0.6021 quiet please -0.1347
-0.3010 quit </s> -0.3010
-1.2553 read and -0.2840
-0.5563 read me -0.2083
-1.2553 read my -0.2768
-1.2553 read the -0.2995
-1.2553 read them 0.0000
-0.3010 reader </s> -0.3010
-0.7782 really good -0.2825
-0.7782 really ila -0.2237
-0.7782 really wonder -0.1249
-0.3010 recognition </s> -0.3010
-0.3010 recording </s> -0.3010
-0.6021 reload audio 0.0000
-0.6021 reload sound 0.0000
-0.3010 remember a -0.2973
-0.3010 remind me -0.2584
-0.4771 reminder </s> -0.3010
-1.0792 reminder for -0.2903
-1.0792 reminder please -0.2977
-0.3680 reminders </s> -0.3010
-1.1461 reminders i've 0.0000
-1.0000 remove a -0.2861
-0.6990 remove all -0.2218
-1.0000 remove reminder -0.1249
-1.0000 remove this -0.2788
-0.3010 repeat </s> -0.3010
-0.6021 restricted area 0.0000
-0.6021 restricted ila -0.2237
-0.3010 restrictions </s> -0.3010
-0.3010 results </s> -0.3010
-0.9031 right </s> -0.3010
-0.4260 right now 0.0000
-0.3010 rihanna </s> -0.3010
-0.3010 rock mix 0.0000
-0.3010 rolling stones 0.0000
-0.3010 roots </s> -0.3010
-0.3010 run a -0.2936
-0.6990 running </s> -0.3010
-0.5229 running timers -0.0726
-0.3010 said </s> -0.3010
-0.3010 san francisco 0.0000
-0.7782 save energy -0.2430
-0.7782 save power -0.1461
-0.7782 save some -0.2817
-0.3010 saver mode -0.0193
-0.3010 saving off -0.1498
-0.9031 say </s> -0.3010
-0.9031 say you -0.2916
-0.6021 say your -0.1963
-0.3010 science news -0.1249
-1.7924 search and -0.2840
-1.0934 search for -0.2323
-1.7924 search inside -0.1761
-1.1903 search it -0.2430
-1.1903 search music -0.2218
-1.7924 search online 0.0000
-1.1903 search pictures 0.0000
-1.7924 search some -0.1296
-1.4914 search spotify -0.0969
-1.0142 search that -0.1919
-1.7924 search wiki 0.0000
-1.7924 search wikipedia -0.1761
-0.3010 searching a -0.2705
-0.6021 second </s> -0.3010
-0.6021 second headline -0.1192
-0.3010 seconds </s> -0.3010
-1.0000 see how -0.2923
-0.6990 see what -0.2843
-0.6990 see you -0.2979
-0.3010 self test -0.1249
-0.3010 send email 0.0000
-0.4260 series </s> -0.3010
-0.9031 series please -0.1347
-0.6767 set a -0.2503
-1.1027 set an 0.0000
-1.2788 set default 0.0000
-1.2788 set personal -0.1919
-1.2788 set speech -0.1761
-1.2788 set voice -0.0969
-0.3979 settings </s> -0.3010
-1.0000 settings please -0.1347
-0.9031 seven </s> -0.3010
-0.9031 seven minutes -0.0596
-0.9031 seven o'clock -0.0263
-0.9031 seven pm 0.0000
-0.6021 seventeen </s> -0.3010
-0.6021 seventeen minutes -0.0596
-0.3010 shakira </s> -0.3010
-0.3010 share market 0.0000
-0.3010 short distance 0.0000
-1.1950 show all -0.0280
-0.4680 show me -0.1840
-1.6721 show my -0.2717
-1.9731 show reminders -0.0580
-1.3711 show the -0.2499
-1.6721 show tv -0.2009
-0.7782 shutdown the -0.2995
-0.4771 shutdown windows 0.0000
-0.6021 silent </s> -0.3010
-0.6021 silent mode -0.2374
-0.3010 simon </s> -0.3010
-0.9031 six </s> -0.3010
-0.9031 six minutes -0.0596
-0.9031 six o'clock -0.0263
-0.9031 six pm 0.0000
-0.6021 sixteen </s> -0.3010
-0.6021 sixteen minutes -0.0596
-0.3010 skills </s> -0.3010
-0.3010 slayer </s> -0.3010
-0.3010 smith </s> -0.3010
-0.4771 so funny -0.1761
-0.7782 so on -0.2688
-0.5229 soccer results 0.0000
-0.6990 soccer today -0.0212
-0.4867 some music -0.0458
-1.3617 some physics 0.0000
-1.3617 some power -0.1461
-1.3617 some science 0.0000
-1.3617 some sports 0.0000
-0.3010 something </s> -0.3010
-0.3010 sometimes </s> -0.3010
-0.3010 songs </s> -0.3010
-0.3010 sorry </s> -0.3010
-0.3010 sound engine 0.0000
-0.3010 sounds good -0.2218
-1.1461 speak again 0.0000
-0.8451 speak english 0.0000
-0.5441 speak german -0.0580
-0.6021 speaker adaptation 0.0000
-0.6021 speaker adaption 0.0000
-0.6021 speech engine 0.0000
-0.6021 speech recognition 0.0000
-0.3010 sports news -0.1249
-0.6021 spotify </s> -0.3010
-0.9031 spotify and -0.2663
-0.9031 spotify for -0.2848
-0.3010 stand for -0.2848
-1.4150 start </s> -0.3010
-1.2389 start a -0.2585
-1.7160 start again 0.0000
-1.4150 start an 0.0000
-1.7160 start and -0.2663
-1.7160 start at -0.2919
-1.7160 start facebook -0.2688
-1.7160 start google -0.2788
-1.7160 start it -0.2109
-1.4150 start learning 0.0000
-1.7160 start matlab -0.1761
-1.7160 start my -0.2963
-1.7160 start powerpoint -0.2218
-1.4150 start program -0.0235
-1.4150 start recording 0.0000
-1.7160 start some -0.1296
-1.4150 start to -0.2952
-1.7160 start twitter -0.1249
-0.3010 starting </s> -0.3010
-0.3010 stefan </s> -0.3010
-0.3010 sting </s> -0.3010
-0.3010 stones </s> -0.3010
-1.0792 stop a -0.2784
-0.7782 stop all -0.1461
-1.0792 stop learning 0.0000
-1.0792 stop listening -0.1249
-1.0792 stop recording 0.0000
-0.3010 store </s> -0.3010
-0.3010 stove </s> -0.3010
-0.3010 stripes </s> -0.3010
-0.3010 supermarket please -0.1347
-1.2041 switch language 0.0000
-0.7270 switch off -0.2009
-1.2041 switch on -0.1635
-0.7270 switch to -0.2711
-0.3010 system </s> -0.3010
-0.3010 take the -0.2995
-0.3010 talk to -0.2863
-0.4523 teach mode -0.0193
-0.8325 teach you -0.2584
-0.3010 television </s> -0.3010
-0.3010 tell me -0.2141
-1.1461 ten </s> -0.3010
-0.6690 ten minutes 0.0000
-1.1461 ten o'clock -0.0263
-0.8451 ten pm 0.0000
-0.4771 test </s> -0.3010
-1.2553 test accuracy 0.0000
-1.2553 test of -0.2863
-1.2553 test twenty -0.2499
-0.3010 thank you -0.2635
-0.4771 thanks </s> -0.3010
-0.7782 thanks ila -0.2963
-0.8573 that </s> -0.3010
-1.2553 that mean 0.0000
-0.9542 that on -0.1635
-0.9542 that online 0.0000
-1.5563 that please -0.1347
-1.2553 that was 0.0000
-0.6021 that's annoying 0.0000
-0.9031 that's completely 0.0000
-0.9031 that's very 0.0000
-2.4594 the active 0.0000
-1.9823 the best 0.0000
-2.4594 the birthday -0.1761
-1.9823 the browser -0.0792
-1.8573 the bundesliga -0.1249
-1.9823 the closest 0.0000
-2.4594 the commands -0.2218
-2.1584 the computer 0.0000
-2.1584 the date -0.1761
-2.4594 the day -0.2688
-1.7604 the first 0.0000
-2.4594 the future 0.0000
-2.4594 the game 0.0000
-2.1584 the german -0.2688
-2.1584 the grammar 0.0000
-2.4594 the hell 0.0000
-2.1584 the internet -0.2041
-2.4594 the kids 0.0000
-2.1584 the last -0.1761
-1.9823 the latest 0.0000
-2.1584 the lights 0.0000
-2.4594 the location -0.2808
-2.1584 the meaning 0.0000
-2.4594 the meeting -0.1761
-2.4594 the morning -0.0969
-2.4594 the most -0.1249
-2.4594 the nearest 0.0000
-1.5563 the news -0.0792
-1.8573 the next 0.0000
-2.4594 the oven 0.0000
-2.4594 the pc -0.1761
-2.4594 the performance 0.0000
-2.4594 the police 0.0000
-2.4594 the possible 0.0000
-2.1584 the question 0.0000
-2.4594 the rolling 0.0000
-2.4594 the roots 0.0000
-1.7604 the second 0.0000
-1.9823 the settings 0.0000
-2.4594 the share 0.0000
-2.4594 the sports 0.0000
-2.1584 the stove 0.0000
-2.1584 the television 0.0000
-1.7604 the third 0.0000
-1.8573 the time -0.0969
-2.4594 the to -0.2863
-2.4594 the train -0.2762
-2.4594 the trash 0.0000
-1.6143 the tv -0.1675
-1.9823 the way 0.0000
-1.0615 the weather 0.0000
-1.5563 the web -0.0458
-2.1584 the white 0.0000
-2.4594 the wikipedia -0.1761
-2.4594 the world 0.0000
-0.3010 them please -0.1347
-0.6021 then </s> -0.3010
-0.6021 then can -0.0995
-0.7782 there anything -0.1761
-0.4771 there timers -0.2596
-0.7782 these are -0.2953
-0.7782 these names 0.0000
-0.7782 these songs 0.0000
-0.3010 they call 0.0000
-0.3010 thing you -0.2851
-0.3010 think </s> -0.3010
-0.6990 third </s> -0.3010
-0.5229 third headline -0.1192
-0.6021 thirteen </s> -0.3010
-0.6021 thirteen minutes -0.0596
-1.0792 thirty </s> -0.3010
-0.7782 thirty five -0.0348
-0.6021 thirty minutes -0.0248
-1.3010 this a -0.2973
-1.3010 this day -0.2688
-0.6990 this is -0.2849
-1.3010 this reminder -0.1249
-1.3010 this what -0.2843
-1.0000 this wolfram 0.0000
-0.3010 thomas </s> -0.3010
-0.6021 three </s> -0.3010
-1.3010 three days 0.0000
-1.3010 three hours 0.0000
-1.3010 three minutes -0.0596
-1.3010 three o'clock -0.0263
-1.3010 three years 0.0000
-0.3010 threshold </s> -0.3010
-0.3010 thx </s> -0.3010
-0.3010 timberlake </s> -0.3010
-0.4260 time </s> -0.3010
-1.2041 time is -0.2808
-1.2041 time it -0.2872
-1.0792 timer </s> -0.3010
-0.4771 timer for -0.2793
-1.0792 timer please -0.1347
-0.5643 timers </s> -0.3010
-0.8653 timers please -0.1347
-1.0414 timers running -0.2041
-2.1761 to attend 0.0000
-1.8751 to australian 0.0000
-1.8751 to basic 0.0000
-1.8751 to british 0.0000
-1.8751 to canadian 0.0000
-2.1761 to catch 0.0000
-2.1761 to check -0.2218
-1.4771 to do -0.2331
-1.5740 to english 0.0000
-2.1761 to essen 0.0000
-2.1761 to fetch 0.0000
-1.8751 to full 0.0000
-1.5740 to german -0.0580
-2.1761 to go -0.2109
-1.3310 to hear -0.0872
-2.1761 to home -0.2730
-1.8751 to indian 0.0000
-2.1761 to leave 0.0000
-1.8751 to listen -0.1761
-2.1761 to london 0.0000
-2.1761 to los 0.0000
-1.4771 to me -0.2584
-2.1761 to microsoft -0.1761
-2.1761 to my -0.2915
-1.8751 to power -0.2553
-2.1761 to remember 0.0000
-1.6990 to switch -0.1761
-2.1761 to take 0.0000
-1.5740 to teach -0.2319
-1.4771 to the -0.2872
-2.1761 to turn -0.1761
-2.1761 to wake -0.1761
-1.8751 to watch 0.0000
-1.6990 to work -0.0458
-2.1761 to your -0.2576
-0.3233 today </s> -0.3010
-1.6021 today at -0.2533
-0.3010 tommy </s> -0.3010
-0.4973 tomorrow </s> -0.3010
-0.8653 tomorrow at -0.1996
-1.3424 tomorrow nine -0.2041
-0.3010 top </s> -0.3010
-0.3010 totally right -0.2430
-0.6532 train </s> -0.3010
-1.2553 train connection -0.2218
-0.9542 train from -0.1627
-1.2553 train in -0.2735
-1.2553 train or 0.0000
-0.3010 trash out 0.0000
-0.3010 true </s> -0.3010
-0.3010 trying to -0.2981
-0.6021 turn off -0.2167
-0.6021 turn on -0.1635
-0.9294 tv </s> -0.3010
-1.5315 tv in -0.2894
-0.6864 tv program -0.0235
-1.5315 tv right -0.0969
-0.9294 tv series 0.0000
-0.9031 twelve </s> -0.3010
-0.9031 twelve hours 0.0000
-0.9031 twelve minutes -0.0596
-0.9031 twelve o'clock -0.0263
-0.9542 twenty </s> -0.3010
-0.9542 twenty five -0.0348
-1.2553 twenty four -0.1461
-1.2553 twenty minutes -0.0596
-1.2553 twenty one -0.2319
-1.2553 twenty three -0.1761
-1.2553 twenty two -0.2083
-0.7782 twitter page -0.1761
-0.4771 twitter please -0.1347
-0.7160 two </s> -0.3010
-1.4150 two days 0.0000
-0.9379 two hours 0.0000
-1.4150 two minutes -0.0596
-1.4150 two o'clock -0.0263
-1.1139 two years 0.0000
-0.3010 understand </s> -0.3010
-0.9031 up at -0.2533
-0.6021 up ila -0.2237
-0.9031 up tomorrow -0.2374
-1.2041 update </s> -0.3010
-0.9031 update geolocation 0.0000
-0.9031 update location -0.0378
-0.7270 update my -0.2717
-0.3802 updates </s> -0.3010
-1.0792 updates of -0.2863
-0.4260 us </s> -0.3010
-0.9031 us isn't 0.0000
-0.3010 usher </s> -0.3010
-0.3010 using grammar -0.1249
-0.3010 ussa </s> -0.3010
-0.3010 uwe </s> -0.3010
-0.3010 very kind 0.0000
-0.3010 videos of -0.2937
-0.9031 voice </s> -0.3010
-0.4260 voice threshold 0.0000
-0.6021 wake me -0.2986
-0.6021 wake up -0.2430
-0.3010 want to -0.2742
-0.3010 was fast 0.0000
-0.4771 watch a -0.2898
-0.7782 watch the -0.2995
-0.7782 way from -0.2139
-0.7782 way home -0.0969
-0.7782 way to -0.2923
-0.7782 we </s> -0.3010
-1.0792 we go -0.2730
-0.6021 we here -0.0872
-0.7959 weather </s> -0.3010
-1.6990 weather for -0.2623
-0.9208 weather in -0.2775
-1.0000 weather like -0.2083
-1.3979 weather today -0.0212
-1.2218 weather tomorrow -0.1347
-0.3522 web </s> -0.3010
-1.2553 web search -0.2645
-1.4232 what are -0.1362
-1.4232 what can -0.0726
-1.7243 what day -0.2341
-2.0253 what did 0.0000
-1.3263 what do -0.1684
-1.2472 what does 0.0000
-2.0253 what happens 0.0000
-0.6829 what is -0.1405
-2.0253 what the -0.2995
-1.7243 what time -0.2430
-2.0253 what will -0.2218
-1.4232 what you -0.2851
-1.5315 what's going -0.2218
-1.5315 what's inside -0.1761
-1.5315 what's my -0.2511
-0.7533 what's on -0.1280
-1.2304 what's the -0.2919
-1.2304 what's up -0.1761
-0.9294 what's your -0.1963
-1.0000 whats my -0.2511
-0.6990 whats on -0.1280
-0.6990 whats the -0.2919
-1.3010 when exiting 0.0000
-0.8239 when i -0.2878
-1.0000 when i'm -0.2341
-1.3010 when is -0.2041
-1.3010 when starting 0.0000
-1.0000 when you -0.2963
-1.1761 where am -0.1919
-0.8751 where are -0.1104
-0.7782 where do -0.2715
-0.8751 where i -0.2648
-0.3010 while </s> -0.3010
-0.3010 white stripes 0.0000
-1.1461 who am -0.1919
-1.1461 who are -0.1526
-1.1461 who created 0.0000
-0.8451 who is -0.2849
-1.1461 who made 0.0000
-1.1461 who programmed 0.0000
-0.6990 why </s> -0.3010
-0.5229 why are -0.2715
-0.3010 wiki for -0.2848
-0.6021 wikipedia article 0.0000
-0.6021 wikipedia for -0.2848
-0.4771 will </s> -0.3010
-0.7782 will the -0.2995
-0.3010 windows </s> -0.3010
-0.6021 with </s> -0.3010
-0.6021 with the -0.2965
-0.3010 wolfgang </s> -0.3010
-0.3010 wolfram alpha 0.0000
-0.3010 won't </s> -0.3010
-0.4771 wonder if 0.0000
-0.7782 wonder what -0.2843
-0.6021 word </s> -0.3010
-0.6021 word please -0.1347
-0.4102 work </s> -0.3010
-1.2553 work from -0.2139
-1.2553 work to -0.2981
-0.3010 world and -0.2663
-1.0792 would be -0.2688
-0.3802 would like -0.1413
-0.3010 wow that -0.2762
-0.3010 wrong </s> -0.3010
-0.3010 year </s> -0.3010
-0.3010 years </s> -0.3010
-0.8451 yes </s> -0.3010
-0.8451 yes i -0.2923
-1.1461 yes most -0.2218
-1.1461 yes this -0.2041
-1.1461 yes you -0.2916
-0.4771 york </s> -0.3010
-0.7782 york online 0.0000
-1.1218 you </s> -0.3010
-2.4440 you a -0.2898
-2.1430 you able 0.0000
-2.4440 you alright 0.0000
-2.1430 you and -0.2663
-2.4440 you anymore 0.0000
-1.6659 you are -0.2653
-2.4440 you bing -0.2218
-1.4898 you can -0.2704
-2.1430 you connected 0.0000
-2.4440 you could -0.1761
-2.1430 you do -0.2463
-2.4440 you exit 0.0000
-2.1430 you feeling -0.1249
-2.4440 you find -0.2762
-2.1430 you from -0.2596
-2.4440 you google -0.2304
-1.9669 you have -0.1963
-2.1430 you hear -0.2499
-1.9669 you help -0.1761
-2.4440 you ila -0.2237
-1.2136 you know 0.0000
-2.1430 you later 0.0000
-2.4440 you listening -0.2218
-2.4440 you load -0.2156
-2.1430 you may 0.0000
-2.4440 you mean 0.0000
-1.8420 you open -0.2417
-2.1430 you play -0.1047
-1.7451 you please -0.2486
-2.4440 you read -0.2762
-2.1430 you remind 0.0000
-2.4440 you remove -0.2553
-1.9669 you search -0.2162
-2.4440 you set -0.1984
-1.7451 you show -0.1203
-1.9669 you something 0.0000
-1.6659 you speak -0.0580
-2.1430 you start -0.2752
-2.4440 you stop -0.2632
-2.4440 you switch -0.2109
-1.8420 you tell 0.0000
-2.4440 you think 0.0000
-1.9669 you today -0.0212
-2.4440 you turn -0.1761
-2.4440 you update -0.2109
-2.4440 you using 0.0000
-2.4440 you want 0.0000
-2.4440 you with -0.1761
-0.3010 you're so -0.1249
-1.3222 your age 0.0000
-1.6232 your commands -0.2218
-1.6232 your intelligence 0.0000
-1.0212 your memory 0.0000
-1.6232 your mind 0.0000
-1.6232 your most -0.1249
-0.6690 your name -0.0435
-1.6232 your skills 0.0000
-1.6232 your voice -0.2430
-0.3010 yourself </s> -0.3010
-0.3010 youtube </s> -0.3010
-0.3010 z </s> -0.3010
-0.3010 zz top 0.0000

\3-grams:
-0.3010 <s> a question
-0.3010 <s> abort </s>
-0.3010 <s> ac dc
-0.6021 <s> activate advanced
-0.6021 <s> activate teach
-0.3010 <s> adobe pdf
-0.3010 <s> alexander </s>
-0.3010 <s> amt </s>
-0.3010 <s> and then
-0.3010 <s> any news
-0.6021 <s> app </s>
-0.6021 <s> app info
-0.3010 <s> arduino </s>
-0.6990 <s> are there
-0.5229 <s> are you
-0.6021 <s> ask that
-0.6021 <s> ask this
-1.2553 <s> at eight
-1.5563 <s> at eleven
-1.5563 <s> at five
-1.5563 <s> at four
-1.5563 <s> at home
-1.2553 <s> at nine
-1.5563 <s> at one
-1.2553 <s> at seven
-1.2553 <s> at six
-1.2553 <s> at ten
-1.5563 <s> at three
-1.5563 <s> at twelve
-1.5563 <s> at two
-0.3010 <s> azize </s>
-0.3010 <s> batch test
-0.3010 <s> bb king
-0.7782 <s> be loud
-0.7782 <s> be quiet
-0.7782 <s> be silent
-0.3010 <s> beatsteaks </s>
-0.3010 <s> benedikt </s>
-0.3010 <s> berlin </s>
-0.3010 <s> beyonce </s>
-0.6021 <s> bob dylan
-0.6021 <s> bob marley
-0.3010 <s> boring </s>
-0.3010 <s> boss </s>
-0.3010 <s> bosse </s>
-0.3010 <s> bring me
-0.3010 <s> bruno mars
-0.6021 <s> bye </s>
-0.6021 <s> bye bye
-0.3010 <s> calculator </s>
-1.4867 <s> can i
-0.3303 <s> can you
-0.3010 <s> cancel </s>
-0.3010 <s> carla </s>
-0.3802 <s> change language
-1.0792 <s> change voice
-0.7782 <s> check for
-0.4771 <s> check internet
-0.3010 <s> chef </s>
-0.3010 <s> chicago </s>
-0.3010 <s> christian </s>
-0.3010 <s> christoph </s>
-1.0792 <s> close all
-0.7782 <s> close last
-1.0792 <s> close mozilla
-0.7782 <s> close the
-0.3010 <s> cologne </s>
-0.3010 <s> colon </s>
-0.3010 <s> comma </s>
-0.3010 <s> cool </s>
-0.3010 <s> could you
-0.3010 <s> create a
-0.6021 <s> creo </s>
-0.6021 <s> creo elements
-0.3010 <s> cro </s>
-0.3010 <s> cu </s>
-0.3010 <s> daft punk
-0.3010 <s> date </s>
-0.3010 <s> day </s>
-0.3010 <s> days </s>
-0.3010 <s> deactivate teach
-0.3010 <s> deichkind </s>
-0.3010 <s> dennis </s>
-0.3010 <s> did i
-0.3010 <s> disable teach
-1.2304 <s> do a
-0.3554 <s> do you
-0.3010 <s> done </s>
-0.3010 <s> duesseldorf </s>
-0.3010 <s> duisburg </s>
-0.3010 <s> eight </s>
-0.3010 <s> eighteen </s>
-0.3010 <s> eleven </s>
-0.3010 <s> elke </s>
-0.3010 <s> eminem </s>
-0.3010 <s> enable teach
-0.3010 <s> end </s>
-0.4771 <s> energy saver
-0.7782 <s> energy saving
-0.3010 <s> enter personal
-0.3010 <s> essen </s>
-0.3010 <s> everything alright
-0.3010 <s> exit </s>
-0.3010 <s> facebook </s>
-0.3010 <s> fifteen </s>
-0.6021 <s> find a
-1.0792 <s> find me
-1.0792 <s> find pictures
-1.0792 <s> find the
-0.3010 <s> firefox </s>
-0.3010 <s> five </s>
-0.3010 <s> florian </s>
-0.6021 <s> forty </s>
-0.6021 <s> forty five
-0.3010 <s> four </s>
-0.3010 <s> fourteen </s>
-0.3010 <s> frank </s>
-0.3010 <s> frankfurt </s>
-0.3010 <s> from my
-0.3010 <s> get directions
-0.3010 <s> give me
-0.3010 <s> go to
-0.9031 <s> good </s>
-0.9031 <s> good bye
-1.2041 <s> good day
-0.7270 <s> good morning
-0.3010 <s> good-bye </s>
-0.3010 <s> goodbye </s>
-0.6021 <s> google </s>
-0.6021 <s> google that
-0.3010 <s> hamburg </s>
-0.4771 <s> hello </s>
-0.7782 <s> hello ila
-0.3010 <s> help </s>
-0.3010 <s> hendrix </s>
-0.3010 <s> here </s>
-1.2041 <s> hey </s>
-1.5051 <s> hey ho
-0.3912 <s> hey ila
-0.4771 <s> hi </s>
-0.7782 <s> hi ila
-0.3010 <s> hide yourself
-1.3222 <s> how </s>
-0.7782 <s> how are
-0.6232 <s> how is
-1.3222 <s> how old
-0.3010 <s> how's the
-1.0212 <s> i am
-1.3222 <s> i don't
-1.0212 <s> i have
-1.6232 <s> i need
-1.6232 <s> i really
-1.6232 <s> i repeat
-1.6232 <s> i said
-1.3222 <s> i wonder
-0.9243 <s> i would
-0.4771 <s> i'd like
-0.7782 <s> i'd say
-1.3424 <s> i'm back
-1.3424 <s> i'm feeling
-1.3424 <s> i'm gone
-1.3424 <s> i'm leaving
-0.6435 <s> i'm looking
-1.3424 <s> i'm searching
-1.3424 <s> i'm trying
-0.3010 <s> id like
-0.3010 <s> igor </s>
-1.0414 <s> ila </s>
-1.0414 <s> ila can
-1.3424 <s> ila i
-1.0414 <s> ila please
-1.3424 <s> ila voice
-0.8653 <s> ila what
-0.3010 <s> imagej </s>
-1.8451 <s> in eight
-1.8451 <s> in eighteen
-1.8451 <s> in eleven
-1.8451 <s> in fifteen
-1.8451 <s> in five
-1.5441 <s> in forty
-1.8451 <s> in four
-1.8451 <s> in fourteen
-1.8451 <s> in nine
-1.8451 <s> in nineteen
-1.2430 <s> in one
-1.8451 <s> in seven
-1.8451 <s> in seventeen
-1.8451 <s> in six
-1.8451 <s> in sixteen
-1.8451 <s> in ten
-1.8451 <s> in thirteen
-1.5441 <s> in thirty
-1.2430 <s> in three
-1.5441 <s> in twelve
-1.5441 <s> in twenty
-1.2430 <s> in two
-1.0000 <s> is there
-0.6990 <s> is this
-0.6990 <s> is your
-0.3010 <s> isabella </s>
-0.3010 <s> it would
-0.3010 <s> it's annoying
-0.3010 <s> itunes </s>
-0.3010 <s> jay z
-0.3010 <s> jens </s>
-0.3010 <s> jessica </s>
-0.3010 <s> jessy </s>
-0.3010 <s> jim smith
-0.3010 <s> jimi hendrix
-0.6021 <s> joe </s>
-0.6021 <s> joe smith
-0.3010 <s> johannes </s>
-0.3010 <s> justin timberlake
-0.3010 <s> katy perry
-0.3010 <s> kings of
-0.3010 <s> klaus </s>
-0.3010 <s> kyuss </s>
-0.4771 <s> let's see
-0.7782 <s> let's watch
-0.3010 <s> linux </s>
-0.3010 <s> listen to
-0.7782 <s> load a
-0.7782 <s> load my
-0.7782 <s> load the
-0.3010 <s> locate me
-0.3010 <s> london </s>
-0.3010 <s> look for
-0.3010 <s> los angeles
-0.3010 <s> mac </s>
-0.3010 <s> madonna </s>
-0.3010 <s> make a
-0.3010 <s> manuel </s>
-0.3010 <s> marvin </s>
-0.3010 <s> mathias </s>
-0.3010 <s> matlab </s>
-0.3010 <s> mehdi </s>
-0.3010 <s> metallica </s>
-0.6021 <s> michael </s>
-0.6021 <s> michael jackson
-0.7782 <s> microsoft excel
-0.7782 <s> microsoft powerpoint
-0.7782 <s> microsoft word
-0.3010 <s> minute </s>
-0.3010 <s> minutes </s>
-0.3010 <s> munich </s>
-0.4771 <s> music </s>
-0.7782 <s> music player
-1.3010 <s> my electro
-1.3010 <s> my home
-1.3010 <s> my metal
-0.6990 <s> my name
-1.3010 <s> my place
-1.3010 <s> my rock
-1.3010 <s> my work
-0.3010 <s> nan </s>
-0.3010 <s> new york
-0.3010 <s> news </s>
-0.3010 <s> nice to
-0.3010 <s> nine </s>
-0.3010 <s> nineteen </s>
-0.3010 <s> nirvana </s>
-1.0414 <s> no </s>
-1.0414 <s> no i
-1.3424 <s> no ila
-1.0414 <s> no no
-1.0414 <s> no problem
-1.0414 <s> no problemo
-0.3010 <s> nothing </s>
-0.3010 <s> np </s>
-1.0000 <s> number five
-1.0000 <s> number four
-1.0000 <s> number one
-1.0000 <s> number three
-1.0000 <s> number two
-0.3010 <s> o'clock </s>
-1.1139 <s> ok </s>
-1.1139 <s> ok bye
-0.7160 <s> ok ila
-1.1139 <s> ok let's
-1.1139 <s> ok sounds
-0.6021 <s> on exit
-0.6021 <s> on start
-0.7782 <s> one </s>
-0.4771 <s> one question
-1.1818 <s> open a
-1.5798 <s> open bing
-1.5798 <s> open email
-1.8808 <s> open facebook
-1.5798 <s> open google
-1.1027 <s> open headline
-1.8808 <s> open internet
-1.5798 <s> open maps
-0.9777 <s> open my
-1.8808 <s> open settings
-1.8808 <s> open spotify
-1.1027 <s> open the
-1.8808 <s> open youtube
-0.3010 <s> paris </s>
-0.3010 <s> philipp </s>
-0.3010 <s> pictures </s>
-0.7782 <s> play music
-0.4771 <s> play some
-1.3802 <s> please check
-1.0792 <s> please open
-1.3802 <s> please play
-1.3802 <s> please read
-0.7782 <s> please remind
-1.3802 <s> please show
-1.3802 <s> please start
-1.3802 <s> please switch
-0.3010 <s> point </s>
-0.3010 <s> power saving
-0.3010 <s> powerpoint </s>
-0.3010 <s> pretty cool
-0.3010 <s> quiet please
-0.3010 <s> quit </s>
-0.3010 <s> read me
-0.6021 <s> reload audio
-0.6021 <s> reload sound
-0.3010 <s> remind me
-0.9031 <s> remove a
-0.6021 <s> remove all
-0.9031 <s> remove reminder
-0.3010 <s> rihanna </s>
-0.3010 <s> run a
-0.3010 <s> san francisco
-0.7782 <s> save energy
-0.7782 <s> save power
-0.7782 <s> save some
-0.3010 <s> say your
-1.2218 <s> search for
-1.6990 <s> search inside
-1.0969 <s> search it
-1.0969 <s> search music
-1.6990 <s> search online
-1.0969 <s> search pictures
-1.3979 <s> search spotify
-1.0969 <s> search that
-1.6990 <s> search wiki
-1.6990 <s> search wikipedia
-0.3010 <s> second </s>
-0.3010 <s> seconds </s>
-0.7782 <s> see how
-0.4771 <s> see you
-0.3010 <s> send email
-0.7112 <s> set a
-1.0792 <s> set an
-1.2553 <s> set default
-1.2553 <s> set personal
-1.2553 <s> set speech
-1.2553 <s> set voice
-0.3010 <s> settings </s>
-0.3010 <s> seven </s>
-0.3010 <s> seventeen </s>
-0.3010 <s> shakira </s>
-1.1139 <s> show all
-0.5119 <s> show me
-1.5911 <s> show my
-1.8921 <s> show reminders
-1.2900 <s> show the
-1.5911 <s> show tv
-0.3010 <s> shutdown windows
-0.3010 <s> silent mode
-0.3010 <s> simon </s>
-0.3010 <s> six </s>
-0.3010 <s> sixteen </s>
-0.3010 <s> slayer </s>
-0.3010 <s> sorry </s>
-0.7782 <s> speak english
-0.4771 <s> speak german
-0.3010 <s> spotify </s>
-1.0280 <s> start a
-1.2041 <s> start an
-1.5051 <s> start facebook
-1.5051 <s> start google
-1.2041 <s> start learning
-1.2041 <s> start program
-1.2041 <s> start recording
-1.2041 <s> start to
-1.5051 <s> start twitter
-0.3010 <s> stefan </s>
-0.3010 <s> sting </s>
-1.3424 <s> stop a
-0.7404 <s> stop all
-1.0414 <s> stop learning
-1.0414 <s> stop listening
-1.0414 <s> stop recording
-1.0000 <s> switch language
-1.3010 <s> switch off
-1.3010 <s> switch on
-0.5229 <s> switch to
-0.3010 <s> talk to
-0.3010 <s> teach mode
-0.3010 <s> ten </s>
-0.4771 <s> test </s>
-0.7782 <s> test accuracy
-0.3010 <s> thank you
-0.4771 <s> thanks </s>
-0.7782 <s> thanks ila
-0.3010 <s> that's annoying
-1.4472 <s> the day
-1.1461 <s> the first
-1.1461 <s> the last
-1.4472 <s> the police
-1.4472 <s> the question
-1.4472 <s> the rolling
-1.4472 <s> the roots
-1.1461 <s> the second
-1.1461 <s> the third
-1.4472 <s> the white
-0.3010 <s> these are
-0.3010 <s> they call
-0.3010 <s> thirteen </s>
-0.6021 <s> thirty </s>
-0.6021 <s> thirty five
-0.3010 <s> this is
-0.3010 <s> thomas </s>
-0.3010 <s> three </s>
-0.3010 <s> thx </s>
-0.3010 <s> time </s>
-0.3010 <s> today </s>
-0.3010 <s> tommy </s>
-0.3010 <s> tomorrow </s>
-0.3010 <s> twelve </s>
-1.0792 <s> twenty </s>
-1.0792 <s> twenty five
-1.0792 <s> twenty four
-1.0792 <s> twenty one
-1.0792 <s> twenty three
-1.0792 <s> twenty two
-0.3010 <s> two </s>
-0.7782 <s> update geolocation
-0.7782 <s> update location
-0.7782 <s> update my
-0.3010 <s> usher </s>
-0.3010 <s> ussa </s>
-0.3010 <s> uwe </s>
-0.3010 <s> wake me
-1.2900 <s> what are
-1.2900 <s> what can
-1.5911 <s> what day
-1.8921 <s> what did
-1.5911 <s> what do
-1.1139 <s> what does
-0.6368 <s> what is
-1.8921 <s> what the
-1.8921 <s> what will
-1.5051 <s> what's going
-1.5051 <s> what's my
-0.7270 <s> what's on
-1.2041 <s> what's the
-1.2041 <s> what's up
-0.9031 <s> what's your
-1.0000 <s> whats my
-0.6990 <s> whats on
-0.6990 <s> whats the
-1.2553 <s> when exiting
-0.9542 <s> when i
-0.9542 <s> when i'm
-1.2553 <s> when is
-1.2553 <s> when starting
-0.9542 <s> when you
-1.0414 <s> where am
-0.7404 <s> where are
-0.6435 <s> where do
-1.1461 <s> who am
-1.1461 <s> who are
-1.1461 <s> who created
-0.8451 <s> who is
-1.1461 <s> who made
-1.1461 <s> who programmed
-0.6990 <s> why </s>
-0.5229 <s> why are
-0.3010 <s> windows </s>
-0.3010 <s> wolfgang </s>
-0.3010 <s> wow that
-0.8451 <s> yes </s>
-0.8451 <s> yes i
-1.1461 <s> yes most
-1.1461 <s> yes this
-1.1461 <s> yes you
-0.6021 <s> you are
-0.9031 <s> you can
-0.9031 <s> you may
-0.3010 <s> you're so
-0.3010 <s> zz top
-0.3010 a birthday </s>
-0.3010 a bus </s>
-0.3010 a flight </s>
-0.3010 a headline </s>
-0.3010 a list of
-0.3010 a location </s>
-0.7782 a new command
-0.4771 a new voice
-0.3010 a news update
-0.3010 a note on
-0.3010 a program </s>
-0.3010 a question </s>
-0.6021 a reminder </s>
-0.9031 a reminder for
-0.9031 a reminder please
-0.3010 a restricted area
-0.3010 a self test
-0.3010 a short distance
-0.6021 a speaker adaptation
-0.6021 a speaker adaption
-0.6021 a test </s>
-0.6021 a test of
-1.0792 a timer </s>
-0.4771 a timer for
-1.0792 a timer please
-0.6021 a train </s>
-1.2041 a train connection
-0.9031 a train from
-1.2041 a train or
-0.3010 a tv series
-0.3010 a web search
-0.3010 a while </s>
-0.3010 able to do
-0.3010 about anything </s>
-0.3010 about me </s>
-0.3010 about my interests
-0.3010 about yourself </s>
-0.3010 ac dc </s>
-0.3010 access to your
-0.3010 activate advanced speech
-0.3010 activate teach mode
-0.3010 active reminders </s>
-0.3010 adobe pdf reader
-0.3010 advanced speech recognition
-0.3010 after tomorrow </s>
-0.6021 alarm in forty
-0.6021 alarm in one
-0.3010 all missed reminders
-0.4771 all reminders </s>
-0.7782 all reminders i've
-0.3010 all running timers
-0.3010 all the possible
-0.4771 all timers </s>
-0.7782 all timers please
-0.3010 am i </s>
-0.3010 am impressed </s>
-0.3010 am looking for
-0.5229 an alarm </s>
-0.6990 an alarm in
-0.3010 and find and
-0.3010 and goodbye </s>
-0.3010 and load and
-0.3010 and open and
-0.6021 and read and
-0.6021 and read them
-0.6021 and search and
-0.6021 and search some
-0.3010 and so on
-0.6021 and start at
-0.6021 and start it
-0.3010 and then can
-0.3010 angeles please </s>
-0.3010 any news on
-0.3010 anything i can
-0.3010 app info </s>
-0.3010 apps folder </s>
-0.3010 apps for the
-0.3010 apps list </s>
-0.3010 are all the
-0.3010 are funny </s>
-0.3010 are nice </s>
-0.3010 are pretty cool
-0.3010 are the commands
-0.3010 are there timers
-0.3010 are totally right
-0.6990 are we </s>
-0.5229 are we here
-0.7984 are you </s>
-1.3424 are you able
-1.6435 are you alright
-1.3424 are you connected
-1.3424 are you feeling
-1.3424 are you from
-1.6435 are you ila
-1.6435 are you listening
-1.1663 are you today
-1.6435 are you using
-0.3010 are your most
-0.3010 ask that online
-0.3010 ask this wolfram
-0.6021 ask you </s>
-0.6021 ask you something
-0.5229 at eight o'clock
-0.6990 at eight pm
-0.6021 at eleven am
-0.6021 at eleven o'clock
-0.3010 at five o'clock
-0.3010 at four o'clock
-0.3010 at home </s>
-0.3010 at my location
-0.6021 at nine o'clock
-0.6021 at nine pm
-0.3010 at one o'clock
-0.6021 at seven o'clock
-0.6021 at seven pm
-0.6021 at six o'clock
-0.6021 at six pm
-0.7782 at ten o'clock
-0.4771 at ten pm
-0.3010 at three o'clock
-0.3010 at twelve o'clock
-0.3010 at two o'clock
-0.3010 attend the meeting
-0.3010 audio engine </s>
-0.3010 basic speech recognition
-0.6021 batch test </s>
-0.6021 batch test twenty
-0.3010 bb king </s>
-0.3010 be loud </s>
-0.3010 be nice if
-0.3010 be quiet </s>
-0.3010 be silent </s>
-0.3010 berlin to essen
-0.3010 best guitar player
-0.3010 best match to
-0.3010 bing me home
-0.3010 birthday in one
-0.3010 blog please </s>
-0.3010 bob dylan </s>
-0.3010 bob marley </s>
-0.6021 bring me home
-0.6021 bring me to
-0.3010 browser please ila
-0.3010 bruno mars </s>
-0.3010 bundesliga results </s>
-0.3010 bundesliga today </s>
-0.3010 bus coming </s>
-0.3010 bye bye </s>
-0.3010 call me one
-0.3010 can count </s>
-0.3010 can do </s>
-0.3010 can help you
-0.3979 can i ask
-1.0000 can i teach
-0.3010 can play one
-0.3010 can say </s>
-0.3010 can shutdown the
-0.3010 can start and
-0.3010 can tell me
-0.3010 can understand </s>
-1.9912 can you bing
-1.6902 can you do
-1.9912 can you find
-1.9912 can you google
-1.6902 can you hear
-1.5141 can you help
-1.9912 can you load
-1.5141 can you open
-1.6902 can you play
-1.2923 can you please
-1.9912 can you read
-1.6902 can you remind
-1.9912 can you remove
-1.5141 can you search
-1.9912 can you set
-1.2923 can you show
-1.2131 can you speak
-1.9912 can you start
-1.9912 can you stop
-1.9912 can you switch
-1.3892 can you tell
-1.9912 can you turn
-1.9912 can you update
-0.3010 catch the train
-0.3010 change language to
-0.3010 change voice threshold
-0.3010 check for updates
-0.3010 check internet connection
-0.6021 check the stove
-0.6021 check the weather
-0.3010 close all timers
-0.3010 close last process
-0.3010 close mozilla firefox
-0.3010 close the browser
-0.3010 closest hospital quickly
-0.3010 closest pharmacy and
-0.3010 closest supermarket please
-0.3010 come back </s>
-0.3010 commands ila </s>
-0.3010 commands please </s>
-0.3010 commands you can
-0.3010 completely wrong </s>
-0.3010 computer in forty
-0.3010 connected to the
-0.3010 connection from paris
-0.3010 cool don't you
-0.3010 cool isn't it
-0.3010 could show me
-0.3010 could you open
-0.3010 create a note
-0.3010 created you </s>
-0.3010 creo elements </s>
-0.3010 daft punk </s>
-0.3010 date today </s>
-0.3010 day after tomorrow
-0.3010 day in two
-0.3010 day is it
-0.3010 deactivate teach mode
-0.3010 default speech engine
-0.3010 definitely it's true
-0.3010 dialogues ila can
-0.3010 did i miss
-0.6021 directions from berlin
-0.6021 directions from san
-0.3010 directions to the
-0.3010 disable teach mode
-0.3010 do a speaker
-0.6021 do i live
-0.6021 do i work
-0.3010 do list </s>
-0.3010 do we go
-1.1249 do you have
-0.3716 do you know
-0.3010 does ila stand
-0.3010 does it mean
-0.3010 does that mean
-0.3010 don't want to
-0.3010 don't you think
-0.3010 eight minutes </s>
-0.4771 eight o'clock </s>
-0.7782 eight o'clock in
-0.3010 eight pm </s>
-0.3010 eighteen minutes </s>
-0.3010 electro mix </s>
-0.3010 eleven am </s>
-0.3010 eleven minutes </s>
-0.3010 eleven o'clock </s>
-0.3010 enable teach mode
-0.3010 energy saver mode
-0.3010 energy saving off
-0.3010 english please </s>
-0.3010 enter personal data
-0.3010 everything alright </s>
-0.3010 excel and start
-0.3010 facebook page </s>
-0.3010 facebook please </s>
-0.3010 famous artists </s>
-0.3010 favorite band </s>
-0.3010 favorite tv series
-0.3010 feeling good thank
-0.3010 fetch the kids
-0.4771 fifteen minutes </s>
-0.7782 fifteen minutes to
-0.7782 find a location
-0.4771 find a train
-0.3010 find and search
-0.6021 find me a
-0.6021 find me the
-0.3010 find music of
-0.3010 find pictures of
-0.3010 find the wikipedia
-0.3010 firefox browser </s>
-0.3010 first headline </s>
-0.3802 five minutes </s>
-1.0792 five minutes please
-0.3010 five o'clock </s>
-0.3010 food store </s>
-0.9031 for a bus
-1.2041 for a flight
-0.6021 for a train
-1.2041 for a while
-0.3010 for fifteen minutes
-0.3010 for five minutes
-0.3680 for me </s>
-1.1461 for me ila
-0.3010 for music of
-0.3010 for ten minutes
-0.3010 for that </s>
-0.6021 for the best
-0.6021 for the closest
-0.3010 for thirty minutes
-0.6021 for tomorrow at
-0.6021 for tomorrow nine
-0.3802 for updates </s>
-1.0792 for updates of
-0.4260 for us </s>
-0.9031 for us isn't
-0.3010 for videos of
-0.7782 forty five </s>
-0.4771 forty five minutes
-0.3010 forty minutes </s>
-0.3010 four minutes </s>
-0.3010 four o'clock </s>
-0.3010 fourteen minutes </s>
-0.3010 francisco to los
-0.3010 from berlin to
-0.6021 from here </s>
-0.6021 from here to
-0.6021 from my place
-0.6021 from my work
-0.3010 from paris to
-0.3010 from san francisco
-0.3010 full power </s>
-0.3010 funny sometimes </s>
-0.3010 future hold for
-0.3010 game today at
-0.3010 german bundesliga </s>
-0.3010 german please </s>
-0.4771 get directions from
-0.7782 get directions to
-0.6021 give me a
-0.6021 give me some
-0.3010 go from here
-0.6021 go to full
-0.6021 go to power
-0.3010 going on right
-0.3010 gone for a
-0.3010 good bye </s>
-0.3010 good day </s>
-0.3010 good for us
-0.4771 good morning </s>
-0.7782 good morning ila
-0.3010 good thank you
-0.3010 google chrome </s>
-0.3010 google for me
-0.3010 google please </s>
-0.4771 google that </s>
-0.7782 google that please
-0.6021 grammar mode </s>
-0.6021 grammar mode right
-0.3010 grammar restrictions </s>
-0.3010 guitar player ever
-0.3010 hamburg ila </s>
-0.3010 happening here </s>
-0.3010 happens then </s>
-0.3010 have a question
-0.3010 have access to
-0.3010 have in mind
-0.3010 have the latest
-0.6021 have to go
-0.6021 have to leave
-0.3010 headline one </s>
-0.3010 headline three </s>
-0.3010 headline two </s>
-0.3010 hear me </s>
-0.3010 hear music of
-0.3010 hear some music
-0.3010 hell is happening
-0.3010 hello ila </s>
-0.7782 help me i'm
-0.4771 help me please
-0.3010 help with the
-0.3010 help you with
-0.6021 here to my
-0.6021 here to work
-0.3010 hey ho </s>
-1.4150 hey ila </s>
-1.1139 hey ila are
-1.4150 hey ila can
-1.1139 hey ila get
-1.1139 hey ila how
-1.4150 hey ila how's
-1.4150 hey ila this
-0.9379 hey ila what
-0.3010 hi ila </s>
-0.3010 hide yourself </s>
-0.3010 hold for us
-0.3010 home it's a
-0.3010 home please </s>
-0.3010 hospital quickly </s>
-0.3010 how are you
-0.3010 how i can
-1.0414 how is it
-0.3882 how is the
-0.3010 how old are
-0.7782 how's the performance
-0.4771 how's the weather
-0.3010 how's your voice
-0.6021 i am impressed
-0.6021 i am looking
-0.3010 i ask you
-0.6021 i can count
-0.6021 i can help
-0.3010 i come back
-0.3010 i don't want
-0.6021 i have a
-0.6021 i have to
-0.3010 i leave </s>
-0.3010 i live </s>
-0.6021 i miss </s>
-0.6021 i miss something
-0.3010 i need help
-0.3010 i really wonder
-0.3010 i repeat </s>
-0.3010 i said </s>
-0.3010 i teach you
-0.3010 i will </s>
-0.3010 i won't </s>
-0.6021 i wonder if
-0.6021 i wonder what
-0.3010 i work </s>
-0.3010 i would like
-0.3010 i'd like to
-0.3010 i'd say you
-0.3010 i'm back </s>
-0.3010 i'm feeling good
-0.6021 i'm gone </s>
-0.6021 i'm gone for
-0.3010 i'm leaving </s>
-0.3010 i'm looking for
-0.3010 i'm searching a
-0.3010 i'm trying to
-0.3010 i've missed </s>
-0.3010 id like to
-0.4771 if you can
-0.7782 if you could
-0.3010 ila are you
-0.9031 ila can say
-0.4260 ila can you
-0.3010 ila check for
-0.3010 ila get directions
-0.3010 ila give me
-0.3010 ila how are
-0.3010 ila how's your
-0.3010 ila i said
-0.3010 ila let's start
-0.9031 ila please find
-0.9031 ila please open
-0.9031 ila please play
-0.9031 ila please start
-0.3010 ila show me
-0.3010 ila stand for
-0.3010 ila that's very
-0.3010 ila this is
-0.3010 ila voice </s>
-0.6021 ila what do
-0.7782 ila what is
-1.0792 ila what time
-0.3010 important commands ila
-0.3010 important thing you
-0.3010 in chicago </s>
-0.3010 in eight minutes
-0.3010 in eighteen minutes
-0.3010 in eleven minutes
-0.3010 in fifteen minutes
-0.3010 in five minutes
-0.6021 in forty five
-0.6021 in forty minutes
-0.3010 in four minutes
-0.3010 in fourteen minutes
-0.3010 in hamburg ila
-0.3010 in london </s>
-0.3010 in los angeles
-0.3010 in mind </s>
-0.3010 in munich </s>
-0.3010 in new york
-0.3010 in nine minutes
-0.3010 in nineteen minutes
-1.1461 in one day
-0.6690 in one hour
-1.1461 in one minute
-0.8451 in one year
-0.3010 in san francisco
-0.3010 in seven minutes
-0.3010 in seventeen minutes
-0.3010 in six minutes
-0.3010 in sixteen minutes
-0.3010 in ten minutes
-0.4771 in the bundesliga
-0.7782 in the morning
-0.3010 in thirteen minutes
-0.7782 in thirty five
-0.4771 in thirty minutes
-0.9031 in three days
-0.9031 in three hours
-0.9031 in three minutes
-0.9031 in three years
-0.6021 in twelve hours
-0.6021 in twelve minutes
-0.6021 in twenty five
-0.6021 in twenty minutes
-1.1461 in two days
-0.6690 in two hours
-1.1461 in two minutes
-0.8451 in two years
-0.3010 inside my apps
-0.3010 inside your memory
-0.3010 intelligence restricted ila
-0.3010 internet connection </s>
-0.3010 internet explorer </s>
-0.3010 is a test
-0.3010 is boss </s>
-0.3010 is correct </s>
-0.3010 is florian </s>
-0.3010 is happening here
-0.5229 is it </s>
-0.6990 is it going
-0.3010 is my name
-0.9031 is on the
-0.6021 is on tv
-0.9031 is on your
-0.6021 is playing in
-0.6021 is playing soccer
-0.3010 is really good
-1.3424 is the meaning
-1.6435 is the most
-1.3424 is the next
-1.6435 is the question
-1.3424 is the time
-0.4973 is the weather
-0.3010 is there anything
-0.6021 is this a
-0.6021 is this what
-0.3010 is what is
-0.7782 is your age
-1.0792 is your intelligence
-0.6021 is your name
-0.3010 isn't it </s>
-0.3010 it going </s>
-0.3010 it is </s>
-0.3010 it mean </s>
-0.3010 it on the
-0.3010 it would be
-0.3010 it's a short
-0.3010 it's annoying </s>
-0.3010 it's true </s>
-0.3010 jay z </s>
-0.3010 jim smith </s>
-0.3010 jimi hendrix </s>
-0.3010 joe smith </s>
-0.3010 justin timberlake </s>
-0.3010 katy perry </s>
-0.3010 kids in one
-0.3010 kind of you
-0.3010 kings of leon
-0.9031 know about anything
-0.9031 know about me
-0.9031 know about my
-0.9031 know about yourself
-0.3010 know arduino </s>
-0.3010 know me </s>
-0.3010 know my name
-0.3010 know soccer results
-0.3010 know what's inside
-0.3010 know where i
-1.0792 language to australian
-1.0792 language to british
-1.0792 language to canadian
-1.0792 language to english
-1.0792 language to german
-1.0792 language to indian
-0.3010 last process </s>
-0.3010 latest news of
-0.3010 latest physics news
-0.3010 latest soccer results
-0.3010 let's go </s>
-0.3010 let's see what
-0.3010 let's start again
-0.3010 let's watch a
-0.3010 lights please </s>
-0.3010 like in los
-0.5052 like to hear
-0.9031 like to teach
-1.2041 like to watch
-0.3010 like today </s>
-0.3010 like tomorrow </s>
-0.3010 list of your
-0.3010 listen to me
-0.3010 listening to me
-0.6021 load a headline
-0.6021 load a program
-0.3010 load and open
-1.0000 load my blog
-1.0000 load my favorite
-0.5229 load my personal
-0.9031 load the first
-0.9031 load the latest
-0.9031 load the second
-0.9031 load the third
-0.3010 locate me </s>
-0.3010 location of the
-0.3010 look for updates
-0.3590 looking for a
-1.2041 looking for music
-0.4771 los angeles </s>
-0.7782 los angeles please
-0.3010 made you </s>
-0.6021 make a note
-0.6021 make a web
-0.3010 market today </s>
-0.3010 match to microsoft
-0.3010 matlab for me
-0.3010 may speak again
-0.9031 me a list
-0.9031 me a news
-0.9031 me a timer
-0.9031 me a train
-0.3010 me all reminders
-0.4771 me home </s>
-0.7782 me home please
-0.3010 me i'm looking
-0.3010 me ila </s>
-0.6021 me in fifteen
-0.6021 me in ten
-0.3010 me my personal
-0.9031 me of our
-0.9031 me of something
-0.9031 me of the
-0.9031 me of this
-0.3010 me one of
-0.3010 me our location
-0.3010 me pictures of
-0.4771 me please </s>
-0.7782 me please how
-1.1461 me some music
-0.8451 me some physics
-0.8451 me some science
-0.8451 me some sports
-1.7324 me the active
-1.4314 me the bundesliga
-1.7324 me the closest
-1.7324 me the first
-1.4314 me the german
-1.7324 me the latest
-1.7324 me the location
-1.1303 me the news
-1.7324 me the second
-1.7324 me the third
-1.2553 me the tv
-1.2553 me the way
-0.9542 me the weather
-1.3424 me to attend
-1.3424 me to catch
-1.3424 me to fetch
-1.0414 me to switch
-1.3424 me to take
-1.0414 me to the
-1.3424 me to turn
-1.3424 me to wake
-1.3424 me to watch
-0.3010 me up at
-0.7782 me what happens
-0.7782 me what is
-0.7782 me what time
-0.3010 me your memory
-0.3010 meaning of life
-0.3010 meeting tomorrow at
-0.3010 metal mix </s>
-0.3010 michael jackson </s>
-0.6021 microsoft excel </s>
-0.6021 microsoft excel and
-0.3010 microsoft powerpoint </s>
-0.3010 microsoft word </s>
-0.3010 minutes please </s>
-0.6021 minutes to check
-0.6021 minutes to switch
-0.3010 miss something </s>
-0.3010 missed reminders </s>
-0.3010 mode off </s>
-0.3010 mode on </s>
-0.3010 mode right now
-0.3010 morning ila </s>
-0.3010 most definitely it's
-0.6021 most important commands
-0.6021 most important thing
-0.3010 mozilla firefox browser
-0.6021 music for me
-0.6021 music for us
-0.3010 music news </s>
-1.1461 music of daft
-1.1461 music of jimi
-1.1461 music of kyuss
-1.1461 music of metallica
-0.6690 music of the
-0.3010 music online </s>
-0.3010 music player </s>
-0.7782 my apps folder
-0.7782 my apps for
-0.7782 my apps list
-0.3010 my blog please
-0.3010 my browser please
-0.3010 my electro mix
-0.3010 my facebook page
-0.6021 my favorite band
-0.6021 my favorite tv
-0.3010 my home </s>
-0.3010 my interests </s>
-0.3010 my location </s>
-0.3010 my metal mix
-0.3979 my name </s>
-1.0000 my name is
-0.3010 my news </s>
-0.3010 my pc </s>
-0.3010 my personal news
-0.6021 my place </s>
-0.6021 my place to
-0.3010 my practice program
-0.3010 my rock mix
-0.3010 my to do
-0.3010 my twitter page
-0.6021 my work </s>
-0.6021 my work to
-0.3010 name again </s>
-0.6021 name is boss
-0.6021 name is florian
-0.3010 name really ila
-0.3010 nearest food store
-0.3010 need help with
-0.3010 new command </s>
-0.3010 new voice threshold
-0.4771 new york </s>
-0.7782 new york online
-0.6021 news of the
-0.6021 news of today
-0.3010 news on cats
-0.3010 news please </s>
-0.3010 news today </s>
-0.3010 news update </s>
-0.3010 next bus coming
-0.3010 next drugstore </s>
-0.3010 next pharmacy </s>
-0.3010 next thing you
-0.3010 nice if you
-0.3010 nice to hear
-0.3010 nine minutes </s>
-0.3010 nine o'clock </s>
-0.3010 nine pm </s>
-0.3010 nineteen minutes </s>
-0.3010 no i won't
-0.3010 no ila let's
-0.9031 no no </s>
-0.6021 no no no
-0.9031 no no that's
-0.3010 no problem </s>
-0.3010 no problemo </s>
-0.3010 no that's completely
-0.6021 note on my
-0.6021 note on the
-0.3010 number five </s>
-0.3010 number four </s>
-0.3010 number one </s>
-0.3010 number three </s>
-0.3010 number two </s>
-0.3010 o'clock in the
-0.3010 of cats </s>
-0.3010 of daft punk
-0.3010 of famous artists
-0.3010 of jimi hendrix
-0.3010 of kyuss </s>
-0.3010 of leon </s>
-0.3010 of life </s>
-0.3010 of metallica </s>
-0.3010 of my favorite
-0.3010 of new york
-0.6021 of our meeting
-0.6021 of our system
-0.3010 of san francisco
-0.3010 of something </s>
-0.8451 of the best
-1.1461 of the birthday
-1.1461 of the nearest
-1.1461 of the share
-1.1461 of the white
-1.1461 of the world
-0.6021 of these names
-0.6021 of these songs
-0.3010 of this day
-0.3010 of today </s>
-0.3010 of you </s>
-0.6021 of your commands
-0.6021 of your skills
-0.3010 off my pc
-0.7782 off the computer
-1.0792 off the grammar
-1.0792 off the lights
-1.0792 off the oven
-1.0792 off the stove
-0.3010 ok bye bye
-1.0000 ok ila check
-1.0000 ok ila give
-0.6990 ok ila please
-1.0000 ok ila show
-0.3010 ok let's go
-0.3010 ok sounds good
-0.3010 old are you
-0.3010 on cats </s>
-0.3010 on exit </s>
-0.3010 on my to
-0.3010 on right now
-0.3010 on start </s>
-1.5798 on the grammar
-1.5798 on the lights
-0.9777 on the news
-1.2788 on the television
-1.5798 on the to
-1.2788 on the tv
-0.6767 on the web
-0.3010 on tv </s>
-0.3010 on your mind
-0.3010 one day </s>
-0.3010 one hour </s>
-0.3010 one minute </s>
-0.3010 one o'clock </s>
-0.3010 one of these
-0.3010 one question </s>
-0.3010 one year </s>
-0.7782 open a headline
-0.4771 open a program
-0.3010 open and find
-0.3010 open bing </s>
-0.3010 open email </s>
-0.3010 open facebook </s>
-0.6021 open google </s>
-0.9031 open google for
-0.9031 open google please
-0.7782 open headline one
-0.7782 open headline three
-0.7782 open headline two
-0.3010 open internet explorer
-0.3010 open maps </s>
-0.9031 open my apps
-1.2041 open my blog
-1.2041 open my browser
-1.2041 open my facebook
-0.9031 open my news
-1.2041 open my twitter
-0.3010 open settings </s>
-0.3010 open spotify and
-1.0792 open the browser
-1.0792 open the first
-1.0792 open the second
-0.7782 open the settings
-1.0792 open the third
-0.3010 open twitter please
-0.3010 open word please
-0.3010 open youtube </s>
-0.3010 or bus </s>
-0.3010 our location </s>
-0.3010 our meeting tomorrow
-0.3010 our system </s>
-0.3010 out when i
-0.3010 oven in two
-0.3010 page please </s>
-0.3010 paris to london
-0.3010 pc for me
-0.3010 pdf reader </s>
-0.3010 performance of the
-0.3010 personal data </s>
-0.5229 personal news </s>
-0.6990 personal news please
-0.3010 pharmacy and start
-0.4771 physics news </s>
-0.7782 physics news please
-0.9031 pictures of cats
-0.9031 pictures of famous
-0.9031 pictures of new
-0.9031 pictures of san
-0.3010 place to work
-0.3010 play music </s>
-0.3010 play one of
-0.3010 play some music
-0.3010 player ever </s>
-0.3010 playing in the
-0.3010 playing soccer today
-0.3010 please check the
-0.3010 please find me
-0.3010 please for tomorrow
-0.3010 please how is
-0.3010 please ila </s>
-0.4260 please open facebook
-0.9031 please open google
-0.3010 please play some
-0.3010 please read the
-0.3010 please remind me
-0.3010 please show me
-0.7782 please start matlab
-0.7782 please start my
-0.7782 please start powerpoint
-0.3010 please switch off
-0.3010 possible dialogues ila
-0.3010 power saver mode
-0.3010 power saving off
-0.3010 powerpoint for me
-0.3010 practice program of
-0.6021 pretty cool don't
-0.6021 pretty cool isn't
-0.3010 program of today
-0.3010 programmed you </s>
-0.3010 question is what
-0.3010 quiet please </s>
-0.3010 read and load
-1.0000 read me my
-0.6990 read me some
-0.6990 read me the
-0.3010 read my personal
-0.3010 read the sports
-0.3010 read them please
-0.3010 really good for
-0.3010 really ila </s>
-0.3010 really wonder if
-0.3010 reload audio engine
-0.3010 reload sound engine
-0.3010 remember a birthday
-1.1761 remind me in
-0.8751 remind me of
-0.5229 remind me to
-0.3010 reminder for tomorrow
-0.3010 reminder please for
-0.3010 reminders i've missed
-0.3010 remove a reminder
-0.6021 remove all missed
-0.6021 remove all reminders
-0.3010 remove reminder </s>
-0.3010 remove this reminder
-0.3010 restricted area </s>
-0.3010 restricted ila </s>
-0.3010 right now </s>
-0.3010 rock mix </s>
-0.3010 rolling stones </s>
-0.3010 run a self
-0.4771 running timers </s>
-0.7782 running timers please
-0.4260 san francisco </s>
-0.9031 san francisco to
-0.3010 save energy </s>
-0.3010 save power </s>
-0.3010 save some power
-0.7782 saver mode </s>
-0.7782 saver mode off
-0.7782 saver mode on
-0.3010 saving off </s>
-0.3010 say you are
-0.3010 say your name
-0.3010 science news </s>
-0.3010 search and so
-1.0000 search for that
-1.0000 search for the
-0.6990 search for updates
-1.0000 search for videos
-0.3010 search inside my
-0.3010 search it on
-0.6021 search music of
-0.6021 search music online
-0.3010 search online </s>
-0.6021 search pictures </s>
-0.6021 search pictures of
-0.3010 search some music
-0.6021 search spotify </s>
-0.6021 search spotify for
-0.4771 search that on
-0.7782 search that online
-0.3010 search wiki for
-0.3010 search wikipedia for
-0.3010 searching a train
-0.3010 second headline </s>
-0.3010 see how i
-0.3010 see what you
-0.3010 see you later
-0.3010 self test </s>
-0.3010 send email </s>
-0.3010 series please </s>
-0.9031 set a new
-0.7270 set a reminder
-0.7270 set a timer
-0.3010 set an alarm
-0.3010 set default speech
-0.3010 set personal data
-0.3010 set speech engine
-0.3010 set voice threshold
-0.3010 settings please </s>
-0.3010 seven minutes </s>
-0.3010 seven o'clock </s>
-0.3010 seven pm </s>
-0.3010 seventeen minutes </s>
-0.3010 share market today
-0.3010 short distance </s>
-1.0792 show all missed
-1.0792 show all reminders
-0.7782 show all running
-0.7782 show all timers
-1.8062 show me a
-1.8062 show me all
-1.8062 show me our
-1.8062 show me pictures
-1.3291 show me some
-0.4445 show me the
-1.5051 show me your
-0.3010 show my location
-0.3010 show reminders </s>
-0.6021 show the tv
-0.6021 show the weather
-0.3010 show tv program
-0.3010 shutdown the pc
-0.3010 shutdown windows </s>
-0.3010 silent mode off
-0.3010 six minutes </s>
-0.3010 six o'clock </s>
-0.3010 six pm </s>
-0.3010 sixteen minutes </s>
-0.3010 so funny sometimes
-0.3010 so on </s>
-0.3010 soccer results </s>
-0.3010 soccer today </s>
-0.5740 some music </s>
-0.8751 some music for
-1.4771 some music news
-1.1761 some music of
-0.3010 some physics news
-0.3010 some power </s>
-0.3010 some science news
-0.3010 some sports news
-0.3010 sound engine </s>
-0.3010 sounds good </s>
-0.3010 speak again </s>
-0.6021 speak english </s>
-0.6021 speak english please
-0.6021 speak german </s>
-0.6021 speak german please
-0.3010 speaker adaptation </s>
-0.3010 speaker adaption </s>
-0.3010 speech engine </s>
-0.3010 speech recognition </s>
-0.3010 sports news </s>
-0.3010 spotify and search
-0.3010 spotify for </s>
-0.3010 stand for </s>
-0.4771 start a program
-0.7782 start a tv
-0.3010 start again </s>
-0.3010 start an alarm
-0.3010 start and read
-0.3010 start at my
-0.3010 start facebook please
-0.3010 start google chrome
-0.3010 start it </s>
-0.3010 start learning </s>
-0.3010 start matlab for
-0.3010 start my practice
-0.3010 start powerpoint for
-0.3010 start program </s>
-0.3010 start recording </s>
-0.3010 start some music
-0.3010 start to listen
-0.3010 start twitter please
-0.3010 stop a timer
-0.9031 stop all running
-0.4260 stop all timers
-0.3010 stop learning </s>
-0.3010 stop listening </s>
-0.3010 stop recording </s>
-0.3010 supermarket please </s>
-0.3010 switch language to
-1.0792 switch off my
-0.3802 switch off the
-0.3010 switch on the
-0.7782 switch to basic
-0.7782 switch to english
-0.7782 switch to german
-0.3010 take the trash
-0.3010 talk to me
-0.4771 teach mode </s>
-1.0792 teach mode off
-1.0792 teach mode on
-0.6990 teach you </s>
-1.0000 teach you a
-1.0000 teach you anymore
-1.0000 teach you something
-1.0000 tell me please
-1.0000 tell me the
-0.5229 tell me what
-0.7782 ten minutes </s>
-0.7782 ten minutes please
-0.7782 ten minutes to
-0.3010 ten o'clock </s>
-0.3010 ten pm </s>
-0.3010 test accuracy </s>
-0.3010 test of your
-0.3010 test twenty </s>
-0.5229 thank you </s>
-0.6990 thank you and
-0.3010 thanks ila that's
-0.3010 that mean </s>
-0.3010 that on the
-0.3010 that online </s>
-0.3010 that please </s>
-0.3010 that was fast
-0.3010 that's annoying </s>
-0.3010 that's completely wrong
-0.3010 that's very kind
-0.3010 the active reminders
-0.4771 the best guitar
-0.7782 the best match
-0.3010 the birthday in
-0.3010 the browser </s>
-0.6021 the bundesliga results
-0.6021 the bundesliga today
-0.7782 the closest hospital
-0.7782 the closest pharmacy
-0.7782 the closest supermarket
-0.3010 the commands you
-0.6021 the computer </s>
-0.6021 the computer in
-0.3010 the date today
-0.3010 the day after
-0.6990 the first </s>
-0.5229 the first headline
-0.3010 the future hold
-0.3010 the game today
-0.3010 the german bundesliga
-0.6021 the grammar mode
-0.6021 the grammar restrictions
-0.3010 the hell is
-0.3010 the internet </s>
-0.3010 the kids in
-0.3010 the last </s>
-0.7782 the latest news
-0.7782 the latest physics
-0.7782 the latest soccer
-0.3010 the lights please
-0.3010 the location of
-0.3010 the meaning of
-0.3010 the meeting </s>
-0.3010 the morning </s>
-0.3010 the most important
-0.3010 the nearest food
-0.5052 the news </s>
-1.2041 the news of
-0.9031 the news today
-0.9031 the next bus
-0.9031 the next drugstore
-0.9031 the next pharmacy
-0.9031 the next thing
-0.3010 the oven in
-0.3010 the pc for
-0.3010 the performance of
-0.3010 the police </s>
-0.3010 the possible dialogues
-0.6021 the question </s>
-0.6021 the question is
-0.3010 the rolling stones
-0.3010 the roots </s>
-0.6990 the second </s>
-0.5229 the second headline
-0.4771 the settings </s>
-0.7782 the settings please
-0.3010 the share market
-0.3010 the sports news
-0.3010 the stove </s>
